"","PC1","PC2","PC3","PC4","PC5","PC6","PC7","PC8","PC9","PC10"
"AAACCTGGTCAAAGCG-Sample_VP021",-11.542635620291,3.77962378812981,2.74743732490076,-1.00565170313509,1.36458162556719,1.07838940127224,2.84740206309597,-0.484444958295105,-0.832621882137087,0.0932051070786327
"AAACGGGGTGATAAGT-Sample_VP021",-12.3183218894196,-6.08766516527446,1.56704675933828,-0.971799719568524,-1.31246452686337,-2.75671526278405,2.77703879675122,-0.410119507564586,-2.0204699270234,0.44288714555579
"AAAGATGAGATGCCAG-Sample_VP021",-12.1977713556101,-7.31954666382373,1.5226199540932,-0.818519112173382,-0.188114172731795,-3.6721347270597,4.40984219771252,0.547450277050679,0.331370608937671,0.390904446147162
"AAAGCAACAGCCAGAA-Sample_VP021",-13.4286396053847,4.57028205310836,2.47462558853366,-0.190609904979204,0.00913613853560281,-1.59318750940535,-2.1377647458458,-1.14428864272922,1.78462376070895,0.806067121480562
"AAAGCAATCCGGCACA-Sample_VP021",-11.4653853869514,3.24118931160184,0.320311968327581,-1.44633863259794,1.83186957464355,-1.36042948425029,-0.4089946175927,0.134061484964845,-1.04139914161263,0.82619466360645
"AAAGTAGCACGACTCG-Sample_VP021",-9.32400126044914,-0.832809469368149,-2.16027183505936,-1.04312943266468,-1.37481694994513,-0.44514808548171,-0.859362360133922,0.443580669151224,-1.54125205801005,-0.766659361688194
"AAAGTAGGTTCGTTGA-Sample_VP021",-11.9416758902755,4.14879317527315,1.48587015691991,-2.68438359141213,2.32050040737813,-1.83138425103804,-2.54315889615416,1.16026174205973,2.18109542892426,-0.0931169517324406
"AAAGTAGGTTCTGAAC-Sample_VP021",-12.426195589621,-8.07131675252012,1.91895820503567,-0.524986042000512,-0.299869114474137,-1.36467137656375,-1.16787238206581,-2.00900945449143,-0.765938637953149,-0.574487886613756
"AAATGCCCATGCTAGT-Sample_VP021",-12.7899570729418,5.6240573963838,2.66590094353777,-0.618311821578646,0.551320537944337,1.54455213012122,-0.0638661977318773,0.287856835311684,-0.467645997044523,0.0547062899190315
"AAATGCCTCACCCTCA-Sample_VP021",-11.5581564430936,-6.51538485721596,2.3892119088838,-1.01020752758193,-0.661231553154632,-0.315512796817613,-1.3346756159098,-1.18915129739352,-2.01190110347363,-0.212274097088744
"AAATGCCTCTCACATT-Sample_VP021",-9.71357363842636,0.6883798082391,-2.40039126962129,-0.926714472971785,-1.52004577876169,0.353900789311238,-0.1810153164718,-1.17755120578915,-0.483553850317039,-0.0469190601946144
"AACACGTTCCGGGTGT-Sample_VP021",-10.6280180535895,2.52284357866902,1.49452082465131,-1.33691245235679,2.60911591008773,-0.305572609803038,-1.76385792275878,-0.341378321081593,-0.730885951119939,-1.07497622128906
"AACCATGGTACAGTTC-Sample_VP021",-12.4036892596738,-6.80915244505778,2.40449293629003,-0.342824986042146,-0.605700933403756,-2.38644295683338,3.23191632910297,1.00083593022864,-0.400460228388661,-0.360297393775195
"AACCATGGTCCAGTAT-Sample_VP021",-12.7073829174831,-7.72686503315643,1.73237918752355,-0.842372190692621,-0.243223680831869,0.0917345977935586,-0.222828621017607,-1.61711729236939,-0.906236451510503,-0.26133867459383
"AACCATGGTTGTACAC-Sample_VP021",-13.934682601574,3.32740063783809,2.74168663065089,-1.04595203760998,0.803190793353107,-0.366148577780787,-1.33876828961284,0.273547315739775,0.577325293223,-0.636702236071464
"AACGTTGAGACTTTCG-Sample_VP021",-10.1154862956536,2.99707175959322,-2.65917390011021,-1.78207985441103,0.13675811858776,-0.710668056667459,-0.630237107427036,0.107961374935166,1.98791260578069,1.23570913493997
"AACGTTGAGGCAATTA-Sample_VP021",-12.5848919903359,-8.21074615082186,0.973963067516456,-0.947133930795339,-0.634957681501269,-0.0768856164068887,-1.96156563120092,-0.915420768570215,-1.59244622423561,-0.683202499572751
"AACGTTGGTTACCGAT-Sample_VP021",-13.7072745983598,4.87500037373216,3.26489171450147,0.577760154512733,-4.59109831672325,1.08913374554869,-0.096147801734874,1.1793387945547,-0.327781960835591,-0.470442989170325
"AACGTTGTCATCTGTT-Sample_VP021",-12.0698060159339,-6.98720543345177,2.49113416140867,-1.58661976665156,0.466553723757121,-1.86011986653797,0.354090792610475,-1.23959773589107,-0.228358103289401,-0.0977703443967899
"AACTCAGGTAGCAAAT-Sample_VP021",-12.8078046351776,4.34493303320741,2.73467458642875,-1.4888393486576,1.01631864197139,-0.63256083133867,0.847468143097415,1.93235194517693,0.301235928533451,-1.06834060626204
"AACTCAGGTATAAACG-Sample_VP021",-12.9795776634176,-6.52836407320731,1.93936123075243,0.42355823255236,-0.0873345292358165,-2.55109698997522,3.54862188753777,0.111636097247732,0.547820540974562,-0.393112935459896
"AACTCCCAGTTCGATC-Sample_VP021",-13.2919955078701,-7.2309594423596,2.78636716013382,-0.790254626368128,0.714532251143679,0.315817077061543,-0.556807202663266,-1.455044745247,-2.30193094412255,0.225494041902353
"AACTCCCGTTTAGCTG-Sample_VP021",-11.7833997107514,4.55926975689678,1.88592942418459,-1.84208093879778,1.93148411826174,-1.69859508809684,-0.851361703184282,0.756285287648346,-1.11448615296404,-0.907769857756801
"AACTGGTAGAAACGAG-Sample_VP021",-12.049273138595,-7.83710820992935,1.12655065734908,-1.11684148665028,1.00721562749079,-2.1290285739505,0.97497004040127,0.058681686387098,-0.119951980773132,-0.161585402228605
"AACTGGTCAACGATGG-Sample_VP021",-11.9601814809091,-6.75432035098531,1.43190212652422,-0.519867240723369,0.0201269849642912,0.311511226520374,-2.04151116286121,-0.609317770081924,-2.04676097187854,-0.0439038124567007
"AACTGGTCACACCGCA-Sample_VP021",-12.8794131598853,-7.41971861916393,1.80584725253017,-0.410022291645578,-0.288427591424358,0.297142995120606,-1.71256187126613,-0.430857381205241,-2.06855300521703,-0.956439143444451
"AACTTTCGTATTACCG-Sample_VP021",-12.5857306985246,3.60946859673563,1.75095562171933,-1.47936095940878,1.56905861807876,-0.191292329251247,-0.526062861676197,-0.37858005502517,0.667363718627256,0.0844432816003411
"AACTTTCTCCGCGTTT-Sample_VP021",-12.6195694136887,-5.61637884317383,1.59591051423299,-0.662449061125641,0.292214783955569,1.23694864421384,-1.27276964745052,-1.96792285508584,0.800058978607579,-0.0101123687477634
"AACTTTCTCGCCAGCA-Sample_VP021",-12.8568623054728,-5.84355083380356,2.84723276783135,-1.22010877668249,0.763988674606362,1.36106600231413,-0.506712531768365,-2.38778029363148,-0.887188261953928,0.37947695232022
"AAGACCTCATACGCCG-Sample_VP021",-11.120441577795,3.93123981051874,0.791587132993898,-0.101802141410412,-1.13212785077394,0.151682653458942,0.65919826407055,-1.01252762227196,-0.548619868037517,1.3159024948688
"AAGCCGCAGACTACAA-Sample_VP021",-11.604550505351,3.24554314413762,-0.733944044836411,-1.74814504761639,0.872104016281242,-1.07740338496946,-0.655226436996913,0.22424034192823,0.486987796549507,0.588983454658953
"AAGCCGCCATGCAATC-Sample_VP021",-12.1495466583466,1.53238311716447,0.714360491768416,-0.481640003613423,1.32042418588269,-1.62881956563142,0.613807568909164,-0.374913944039358,-0.126643608732997,0.502458406021136
"AAGGCAGAGCTTCGCG-Sample_VP021",-13.7123850104137,-8.90681265793142,2.57379383371206,-1.45957415865046,-0.11556220770338,-0.376602921688278,-1.69195488668628,-2.68711407275388,-2.19990344547451,-0.109096649610989
"AAGGTTCGTGCAGGTA-Sample_VP021",-12.044286292822,-6.61213481180967,2.47828164266554,-1.21036689749505,-0.356799817932985,-0.195259827856243,-1.7027787344747,-2.00908715166591,-1.7074991216064,0.510187955622071
"AAGGTTCTCTGCCCTA-Sample_VP021",-11.0592696621103,2.01973300911957,-1.17975592919828,-0.702794105356415,1.83306126596089,-2.55025273360941,-3.38879270632646,-1.35703831705104,1.49516475754294,0.760875049385263
"AAGTCTGGTATAATGG-Sample_VP021",-13.7519211974381,-7.24552271237808,1.29447070998178,-0.257687121963717,0.432149933322156,0.648228876285879,0.437098166677424,-0.564748313004369,-1.0820701925769,0.29438877819596
"AATCGGTAGTTTAGGA-Sample_VP021",-12.4496536290686,-7.09077828366382,1.52057697291281,-1.82415193802274,0.981295371621539,-2.09478219046666,1.99993196646645,1.33205243161891,1.43551589888531,0.18582556856092
"AATCGGTGTACGACCC-Sample_VP021",-12.9382638405787,2.91204621121073,1.23682344326048,-2.26650271487826,1.45034586994947,-2.83039050366617,-2.26853039865496,-1.2182924095061,0.197520893180273,0.493738059115523
"AATCGGTGTCTGATCA-Sample_VP021",-14.142484934928,5.5275075813726,3.89204800442449,-0.937869543569029,-0.13917712699369,2.44470683527283,0.798448543225801,-0.650159578756142,0.216879925152088,-0.565517968671373
"ACACCAAAGGCGTACA-Sample_VP021",-11.9045160472575,4.40845975323053,1.60002918663585,-1.89102017216917,1.83121629037099,0.860943711361131,1.33804160608345,0.108346593934711,-1.91841209529426,-0.279259726680874
"ACACCAAGTACTCTCC-Sample_VP021",-12.0991478550997,3.63240803278967,1.38418496488934,-2.0291295876723,2.73851043118423,-4.05616119615036,-2.43465763211175,-0.814550052805992,0.84070902007525,1.08333936622799
"ACACCCTCATGCCTAA-Sample_VP021",-12.9709964977836,4.6016919711961,2.28892016557423,-0.215940116601147,2.32325320294003,0.83489981788412,1.7440715205583,-0.855316631927611,-1.71342799251983,-0.32823404557781
"ACACCCTTCATTGCGA-Sample_VP021",-12.3221733633427,-7.10517655624128,0.903707408210058,-0.439340931168676,0.572016291551004,-3.28177120262316,1.90925666692079,1.04578130802631,0.367943018691883,-0.95427617980243
"ACACTGAGTCACCCAG-Sample_VP021",-10.3524971717542,-5.49551064199073,1.64138464320174,0.329895536238417,1.41778990670006,0.289622321209868,1.73720628932498,-0.150815577672582,2.74675089395619,-0.182422256199265
"ACACTGATCACATACG-Sample_VP021",-12.763060468085,-7.30021558426872,2.29197700611002,-0.987862256866872,0.0507394247659454,0.39598126451648,-1.77783751666591,-1.45443380671048,-1.06848282960051,-0.297069869524533
"ACACTGATCGGCGCAT-Sample_VP021",-13.4878365788162,5.651171074076,4.88381108422692,-0.7752164218414,0.90829646712705,-0.364283727063716,1.45319292780929,1.12664658685977,-1.57906250730585,-0.843266628633761
"ACAGCTAAGACGACGT-Sample_VP021",-13.5878779039293,3.97081857953367,2.99005543332673,-1.28387288325429,2.02037902568425,-1.57254227040998,-0.333774356443225,-0.254858411441542,-0.938299624100321,0.181698556844805
"ACAGCTACATAAGACA-Sample_VP021",-10.0307245352955,1.28539502570418,-3.13438043088099,0.133086575185471,-0.733050855033471,-2.05497358314565,-0.808921920882933,-0.130368153448287,-2.05114604690528,0.709012717466241
"ACATACGCAATAGAGT-Sample_VP021",-12.5385735027205,4.3126040255154,2.72847972984417,-1.88816490762184,1.07326410700654,-1.61812663356272,-2.51238973036698,0.421138041711635,2.30978207153315,0.873020883117246
"ACATCAGGTAGCAAAT-Sample_VP021",-11.8876224275584,5.17297480459106,1.10803424389044,0.452202389247724,-0.94244662929226,-0.232824804475192,0.388489681785733,-0.901768893971112,0.200665839463598,-0.464951330274878
"ACATGGTTCCGCGCAA-Sample_VP021",-11.2009834549206,3.28095315359934,0.651594840031413,-1.75651376344257,0.879245336122667,-2.81298923294713,-1.12081526496067,1.72831141152321,0.0479732952593142,0.511865442809799
"ACCAGTAAGGACAGCT-Sample_VP021",-12.8299549715932,3.96126925404061,2.07734568679671,-0.714829900426467,1.14234973841458,1.99439429701,0.67405117364351,0.332914115205073,-0.342965132656724,-0.895104531439397
"ACCAGTAAGGAGTTGC-Sample_VP021",-11.5411036321044,-6.93501667794038,1.84660960735128,-1.3536741175842,-0.713118871277456,-2.65475319464487,1.51029348714386,-0.264014842048594,-1.20248842075399,0.038349796663755
"ACCAGTAGTCGCGAAA-Sample_VP021",-11.5853813459522,5.35126403113137,3.36107367733535,-1.10670333226406,-0.0374367055887743,0.147148493862709,1.05189768697777,-0.394247996199012,-1.8222612624776,0.381782928087754
"ACCAGTAGTTCAGACT-Sample_VP021",-12.9147952163035,-4.8853313872542,0.327093184295308,-0.933701510400888,1.17606694715298,-1.12936439460079,0.151451481162016,-1.00839034863479,0.239004664338711,-0.386148723254489
"ACCCACTAGACCGGAT-Sample_VP021",-12.6452132144928,-7.27134924467713,2.16910234490214,-1.75370443594051,-0.173010900331555,-1.76530405536454,2.63897241898852,-0.57933786753427,-1.33480401549824,0.0817549411174625
"ACCCACTCAAACTGCT-Sample_VP021",-11.7214305404375,3.85717623062956,2.09947585295802,0.199607098918556,1.37732250219563,0.5485440303371,1.38052206594952,-0.951669984135788,-1.34536468476777,0.68127947945758
"ACCCACTCAATGGTCT-Sample_VP021",-12.8629204328721,3.07906804658561,2.43245692190321,1.06745995629062,0.614461007455729,1.03117521062134,0.6496905477588,-1.35836813330613,-0.608927616965747,-0.152472742420461
"ACCGTAATCCCGGATG-Sample_VP021",-12.4096464028463,0.345620747570105,1.09406118769889,10.8454065738262,-0.365012761699606,-2.01775319541948,0.304198665155429,-0.538795391252034,0.536993870411933,-0.148564415200569
"ACCTTTAGTAGCGCAA-Sample_VP021",-13.0381466084142,3.62578469071527,2.86721931901139,-0.71705624530872,2.09245738913875,0.646442034880642,-0.163839272586281,1.00034752530493,0.0915402586740424,-0.497677990735102
"ACGAGCCAGTTACGGG-Sample_VP021",-9.50163518688652,1.21833499997933,-2.48899929899531,-0.864490473958509,-0.872062746538524,0.252973628712864,1.40007661267289,-1.34718466675437,-0.216971696887844,0.298844461975276
"ACGAGCCGTCTACCTC-Sample_VP021",-13.4802704086476,4.90241530187573,2.99210540526102,0.605372562653222,1.24797598358338,-0.338130559105199,0.466477084119078,-0.00355886266410485,-1.35004997481584,0.159851573087307
"ACGAGCCTCCGAAGAG-Sample_VP021",-11.9798585507228,-7.45004086101976,1.83975356851657,-0.0888702230454307,0.799724993877823,-3.68783207568344,3.67164969926423,1.28797660377866,0.560254249163552,-0.242636556810146
"ACGAGGAAGCTGTCTA-Sample_VP021",-8.5777725125504,-0.295918516590636,-2.16867007613911,-1.33564983334693,-0.0371869695876454,-0.951652965280647,0.377398895314252,3.60865501457512,-0.978192842894899,-0.391478233952743
"ACGATACAGAGTTGGC-Sample_VP021",-11.8751653402521,5.48458208488615,2.23895410296302,-0.427588814664655,-0.815766764138338,1.9926091887094,2.37295714436091,-0.627940647703835,-1.44506158698764,-0.0739002727583728
"ACGATACGTAGGGTAC-Sample_VP021",-13.307578029637,3.71159560557436,2.41121299916728,0.017357198150235,0.497994109542042,-0.838573666856453,-1.50578633478803,-0.732309292342038,0.63882136295432,0.0820514374208446
"ACGATGTAGGAGTACC-Sample_VP021",-9.62086925272106,0.275397768414392,-3.02348778181803,-1.1721390738522,-0.682116996258675,-1.42421354918223,0.246833874461756,0.450836008580761,-0.343069911062099,-0.299208609415418
"ACGATGTTCGGATGTT-Sample_VP021",-12.1598122283226,4.0342922876595,1.49297512866403,-0.570123293453232,2.01552351497955,-0.730435549982152,0.426756417081282,0.271159007787744,-1.7229390767817,-1.18989050202748
"ACGCAGCGTAAGGGCT-Sample_VP021",-13.5323061291182,6.65371492033147,3.5826058097124,0.702398169586668,-0.824906586527894,0.823173884857373,1.25728968698362,0.109024399337825,-1.24690287841965,-0.367404181750042
"ACGCAGCGTACGCTGC-Sample_VP021",-11.7201973534451,1.9905575057762,-0.914769822456825,-1.43305381488622,2.39572540367377,-2.3581306454623,-1.15735723570222,-0.17151636104911,0.522298206065597,0.375740682342376
"ACGCAGCTCAACACAC-Sample_VP021",-7.44484767515612,-1.68177105072829,1.022138198731,5.65938921609426,-0.506005406070521,-1.14184055039914,-0.0639303200686878,0.210815840242943,0.704435489250348,0.778534090788959
"ACGCCAGAGAACTCGG-Sample_VP021",-11.6630382159902,-7.80948488554653,1.40271777694222,-1.08986078543338,-0.76587563037983,-1.61407234948411,0.585700514915285,-0.892038255383188,-1.85862450693281,-0.143488793386945
"ACGCCGAGTAGGACAC-Sample_VP021",-13.6329663901619,-8.42440153888703,3.09697994963295,-1.19607210837645,-0.686816400940284,0.642606142627299,-0.589567457247924,-1.31090874673016,-2.87396756737635,-0.555304156577044
"ACGGAGAAGTCAATAG-Sample_VP021",-11.5415009531396,2.25970581336058,-1.16860918433339,-1.8864786818416,1.57750313954078,-2.76206449658651,-1.45196425948495,-0.530397573235786,1.2639808981558,0.495816995113001
"ACGGAGACATAAGACA-Sample_VP021",-11.6465296067574,2.79415343937017,-0.566616855767166,-1.66143792325882,2.54044848735355,-3.06541199634005,-0.426975827973871,-0.332061587647186,0.872121660223441,1.3384340239919
"ACGGAGACATCCAACA-Sample_VP021",-10.9071193658732,2.74569772912202,0.160951397294761,-1.88938837190806,1.45365186567147,-0.822799387641449,-0.752536978424158,1.71705883022427,0.898694055269517,1.35447101270344
"ACGGAGATCAAACAAG-Sample_VP021",-11.4932386109798,2.99645863000469,1.90455994018147,-2.09032370223419,1.19701744161697,0.95872312323764,0.70113931958923,1.15307802294998,0.23672326296675,0.906435502376739
"ACGGAGATCACATGCA-Sample_VP021",-8.96062636412063,-0.584645759035445,-2.2240105795432,-2.12064032276013,-1.6719924798353,-1.91978894610615,-0.37747959114253,-0.367752244732576,-1.26870974027866,0.258018899943703
"ACGGAGATCCACTCCA-Sample_VP021",-10.7255870285132,3.52601130698595,4.78050904221172,-0.35259230736691,-3.6273348869088,-0.824445666508817,-2.43968693198585,-1.06574418414252,1.12361393994125,0.0703878424654486
"ACGGCCAAGATCGATA-Sample_VP021",-10.5574939468961,-0.741182538264964,-2.12356773205065,0.454859392271399,-0.395469283998656,0.0508514436550446,-0.0332363593726243,-1.38099383967727,-1.28512784983674,-0.352494382506084
"ACGGCCAAGTGTCCAT-Sample_VP021",-11.7993093830073,-7.46774105577885,0.24388215348985,-1.27362041734176,-0.274166573002189,-0.504151300295342,-0.813047390613011,-0.6044594294726,-0.384315732442967,0.524164702382226
"ACGGCCACATCGATTG-Sample_VP021",-13.3907479181502,6.11737924991285,4.30256313270256,-0.948683193514782,0.984772509515547,-0.125740749049174,-1.14296663906135,-0.917720923217624,-0.055911456660314,0.0842283784906153
"ACGGCCATCATATCGG-Sample_VP021",-12.0931542255785,1.62859779285829,-0.615686978486264,0.274495432905177,2.51689307945797,-0.357329384087519,-1.44662052607035,-0.504293641921771,0.870180367268825,0.138636001552876
"ACGGCCATCATGCATG-Sample_VP021",-11.0752162762294,3.00869514046883,2.06365548085944,-1.16445580810404,2.39880313314164,-0.58870211602691,0.00402289892640674,0.315903145937167,0.823121449974561,-0.127314637308215
"ACGGGCTAGCTCTCGG-Sample_VP021",-11.5615419669223,2.37515231220563,-0.29018605748959,-1.94948812555359,0.399773567493996,-1.79206582665769,-1.79063853553162,0.968072081590647,-0.189794192218915,0.760910741309427
"ACGGGCTCAATGGTCT-Sample_VP021",-13.5996776509831,-6.03454291034493,2.90041395176549,-1.65943419925864,0.555417977398997,0.183238866685053,-1.76938565839853,-1.28201004963793,-1.27947041317138,-0.272533100363656
"ACGGGTCAGGCTATCT-Sample_VP021",-11.1356777857422,-6.00905819955373,1.74043521058818,-1.07530472681803,-0.944970973150058,1.29777813995877,-1.14469420558891,-0.118347573711951,-0.780059244182247,-1.43173001123294
"ACGGGTCCATCTATGG-Sample_VP021",-14.1109860524799,4.93600520839728,2.76628463694172,-0.172941343473935,-1.2892804621916,0.960683524024963,-0.55958313972278,-1.58247792051239,1.63584061106768,-0.0101744369125527
"ACGGGTCGTAGAGGAA-Sample_VP021",-7.61016058556917,1.52919083787092,-2.15878248114626,-0.945659925131429,1.90047157164846,-1.55627791646825,-0.651311991708543,0.0586608516608004,-1.08354469056779,0.249162424495089
"ACGTCAATCTTGGGTA-Sample_VP021",-12.8315442041362,4.34479400431166,4.74349980996032,-1.2943669266657,-0.631447424634152,-1.06585567967136,-1.18391925918713,1.35070114177473,1.31220942287462,0.445424894755365
"ACTATCTAGAACTCGG-Sample_VP021",-11.7844258342428,4.23061150616047,3.64133124174506,-0.482015632398084,0.43964719520588,1.41147575818448,-0.340599125275244,0.273663538386303,0.356998164767646,-0.0983145209367221
"ACTATCTGTTAGAACA-Sample_VP021",-6.75334524692696,-2.90800853575015,-0.81195334102229,-0.531335572365978,-0.669634960604301,4.41844118202808,-3.99894162456521,1.10184957828073,0.713238689684683,0.370767228836418
"ACTGAACAGGCCCTCA-Sample_VP021",-10.3865626242734,2.96424462179452,-1.2354277272519,-2.01982024730258,0.428377068137333,-2.08271448197848,-2.63932683695937,-2.30116420240286,1.33315556612842,1.60424947476927
"ACTGAACCATGATCCA-Sample_VP021",-8.71332130153094,-0.28875185596454,-2.67333212686909,0.0918330750750034,-0.0255635385228554,0.0877310345851909,-0.804387423059375,1.47270291835534,-0.812169706603781,-0.389308929367774
"ACTGAACCATTACCTT-Sample_VP021",-13.9710319944367,3.75453600201968,2.71829718636688,-2.0338225568578,2.44516447157237,-2.60285167127486,-1.05389418998047,-0.261148637681961,0.323570859182456,-0.39601179049091
"ACTGAACTCAGCTGGC-Sample_VP021",-11.1231790693539,-4.53614467820224,0.213646673374516,-0.502028033806442,-1.72793751925836,-2.04452702356669,3.11315244381115,-0.216696883182669,0.0624884046137459,0.372681644639386
"ACTGAACTCTACCAGA-Sample_VP021",-14.1903813574002,5.07934976762252,1.8934779161148,0.352232561007979,-0.567933197948773,0.250792756486398,0.0816799591573219,-1.86437272972121,-0.331864722063478,0.111169017613955
"ACTGAGTAGCTTATCG-Sample_VP021",-14.6547715225813,-0.408643603822041,1.16496840522287,12.363340760536,0.919979823768296,-2.15276387209994,-0.0531514360666477,-0.39048851482175,-0.523221251113543,-0.852492561549543
"ACTGAGTCACACCGAC-Sample_VP021",-12.7785800599369,-7.54011188067767,2.27147445763576,-0.856923941805931,-0.0395644238555501,1.1442470391265,-0.551238746287177,-2.43201168358301,-0.0999636780005275,0.857316535517023
"ACTGAGTCAGGAACGT-Sample_VP021",-12.7229617856252,3.38210698228839,3.81953880411809,-1.761067842886,0.103741979669715,-0.59399477434551,0.735411768093019,-0.0544485858512762,-0.947899849572063,0.190917481907254
"ACTGAGTCAGGTGGAT-Sample_VP021",-11.1380924987896,2.83028379126505,2.24293618248476,-0.742490326191086,0.634857979332757,1.5656003231893,0.0699441751171885,0.454817377039243,-0.0442817095809524,0.539662812794045
"ACTGAGTTCATCACCC-Sample_VP021",-11.2854788390341,4.68763558275927,2.86862018581559,-1.00685799778715,0.789560892407307,0.516641668758748,0.881543134424857,0.492717699374043,0.0789964936729281,-1.16561829536611
"ACTGAGTTCCAACCAA-Sample_VP021",-12.0910714249672,4.02280224591009,3.24054747713529,-1.01209338506091,-0.707451172791785,1.45989273206743,0.0302235604667214,1.44991735704455,-0.0929383079589716,-0.835290552133894
"ACTGAGTTCGTCTGAA-Sample_VP021",-14.3836696023113,3.97195569771556,3.93555241646133,-0.955792452773112,0.491222379949872,1.58608856272888,0.290148156413925,-0.724727569363649,0.278012656040639,-1.58479421664945
"ACTGATGAGGGCTTGA-Sample_VP021",-12.5809461767109,-6.19721052582423,1.67770767985264,-1.28267995495314,-0.337042370443739,-1.22014287609079,1.40941686033014,0.195795209832271,0.481943756525307,0.848534771768677
"ACTGATGCAGCCAGAA-Sample_VP021",-12.79060867627,-7.64995365987815,2.71096108461705,-0.0754817375518303,-0.339337852332445,-0.369095968596838,-0.281703706461644,-1.13894128019242,-0.648342460399647,-0.574255463147045
"ACTGCTCTCTTGTACT-Sample_VP021",-12.2543471575424,3.30928747457834,-1.22090880499873,-1.2983098449174,1.20563893387769,-3.27465609471616,-3.52626444819988,-1.12877450631243,0.466836141050017,0.367476826437202
"ACTGCTCTCTTGTCAT-Sample_VP021",-8.8633982848705,0.363373011613904,-4.40947819658284,-0.27302998405622,-0.923128770520766,0.851362231133501,0.628621743215916,1.3849548226068,0.895581907443658,0.236269745741484
"ACTGTCCAGACTTTCG-Sample_VP021",-11.4411823554119,-6.07059125368006,2.30980903290962,-1.36969532652328,0.700863434411013,-0.527480759749267,-2.35549219231274,-0.949753035334198,-2.28236913011542,-0.362549623502768
"ACTGTCCCACCGTTGG-Sample_VP021",-12.3230291414451,6.04993486789337,2.36778838901686,-2.31498775684511,2.19099433135083,-1.2289939780659,-0.464993276551817,0.086952084098184,-0.995397115388771,0.269278981007017
"ACTGTCCGTCATTAGC-Sample_VP021",-13.4108391670363,4.40955784259121,3.60572506591978,-1.49329523910347,0.254824877558077,1.25116583186083,1.71083221495584,0.729172252227888,-0.34140307113589,-0.213952980076359
"ACTGTCCGTTAAGGGC-Sample_VP021",-12.203715763467,4.92071430309227,-0.781477405534048,-1.05063609868023,0.299677143546518,-0.60350685541971,0.419654851152119,-0.720776673844038,-1.79317478775386,0.387708540112688
"ACTGTCCGTTATCCGA-Sample_VP021",-8.62581209299312,1.64712954203347,-0.693245491621517,-1.98467255839746,1.83184429741006,-2.24253575678002,-2.32548635164999,2.36734316503856,1.34084737356256,-0.591332680258863
"ACTTACTAGGCATTGG-Sample_VP021",-12.8329666062477,3.17041588337224,0.247918959770141,-1.46782814590664,2.55267354530129,-3.48464406328459,-2.18317434365103,-0.497567638141444,1.06315848381912,-0.213006702488937
"ACTTACTTCTTCAACT-Sample_VP021",-8.40001284464245,0.195423864995373,-2.77131811576805,-1.19975307943262,-0.404850278485921,-1.58678555566368,-0.856699304182816,0.335984376828607,-0.508871538870181,-0.390592157054597
"ACTTGTTAGTCCGGTC-Sample_VP021",-11.3985357017736,4.46368778798844,0.696819892132217,-1.80142709790791,-0.0174573622183997,-0.412242680404603,0.212932990788032,0.580129570943456,-0.885608180531729,-0.501460728912111
"ACTTTCAAGTGAACGC-Sample_VP021",-11.4963198575533,2.46129326842369,-0.949071289615579,-1.35680918851156,3.05535458680292,-2.52133732104194,-1.50744626081158,-0.178320026161722,0.140036358265556,0.104913461834466
"ACTTTCACATCACGAT-Sample_VP021",-13.3194282137586,5.34461731922842,3.75817417912182,-0.455705997837765,0.657339566795905,2.26932406175945,1.95392503900361,1.05115669304459,-0.103273398086628,0.185902808037923
"AGAATAGGTTCGTCTC-Sample_VP021",-11.8688488879274,4.08856711010359,2.30923968292416,-1.22959635008216,1.76903973085098,1.30792622097462,-0.206424531898552,0.512369268612763,0.058835404682883,1.02151664261754
"AGAATAGTCCACGACG-Sample_VP021",-12.7050731693086,4.03926933087677,1.89324680142058,-1.47586101184851,2.08459357722028,-0.545232887252473,0.48096673497214,-0.623416106273199,-0.462783542054448,0.0872768666361562
"AGAGCTTGTCGCATCG-Sample_VP021",-9.44898402104145,-5.95939929505317,1.21333457013011,-1.54868668607401,-1.17374136662013,0.380111296861405,-1.41936588102847,-0.788141801344227,-2.03582075610637,0.0266651888876487
"AGATCTGAGGCTATCT-Sample_VP021",-11.9689687215709,3.67011786903179,1.88791494509482,-2.06733373619476,2.19621799594676,-1.51205684394583,-2.85526641406675,0.557772087938658,1.17721371374782,1.20120813800796
"AGATCTGGTACTTCTT-Sample_VP021",-14.9687714240061,6.96828896346132,5.47367245381736,0.972981124281503,-0.530266614062483,2.18793947015925,1.11557793177883,-0.153018737368614,-0.0424392908039586,-0.565324251578125
"AGCATACTCTGGTATG-Sample_VP021",-12.0936685834513,-5.80009988579382,2.08044658671912,-0.983021469200211,0.0199010062541371,-2.91122124932353,2.77144172867948,0.964760328291167,-0.307947184235472,-0.454948429684649
"AGCCTAACAAGCCCAC-Sample_VP021",-13.0706813184649,-6.07623695425619,3.39005563649712,-1.7810318963708,0.250493805015644,-1.79039688628851,2.14876062260485,0.386570688703966,-0.906878545275064,-0.0645272662918285
"AGCGGTCTCCTTGCCA-Sample_VP021",-13.9081730010951,6.23837669227935,3.19719838254561,-0.172020661151838,1.42700757617221,1.07242558695392,1.51808280120046,0.71451483586403,-1.47857372483858,-0.909648695180604
"AGCGGTCTCGCGTTTC-Sample_VP021",-12.1186769212827,-7.65976642725109,2.309426062795,-0.874651408442638,-0.805142958992837,-4.32750628149682,3.8904978567518,0.524495869640969,-0.668346207199528,-1.05279328979576
"AGCGTATGTTGTCTTT-Sample_VP021",-13.5605987661671,4.84535315878598,2.535343381241,0.365038777642384,2.72996602730056,1.80926655501388,0.233492723272696,0.255096020515553,0.444195178989307,0.37045290761513
"AGCGTCGAGTCTCCTC-Sample_VP021",-8.26056491224785,0.684569728208014,-2.38794455818159,-0.949337866029343,-0.528855700304856,-0.634778661873909,-0.217950624763308,1.96898755099381,-1.08787604349334,-0.490473978876583
"AGCGTCGTCAGAGCTT-Sample_VP021",-11.6208769726928,5.62443917617028,1.91133828008125,-1.03131408348839,0.141943397419038,1.54215126985996,1.20610211545769,1.31957426712678,-0.119245836413287,-0.326408037914099
"AGCGTCGTCTGCCCTA-Sample_VP021",-12.418870734059,-8.07809274058071,2.56906651449674,1.77929277290197,1.18265250946887,1.31334300737701,-2.01611845040621,0.467716905676638,-0.141358915923016,0.106974631055714
"AGCTCCTAGTACATGA-Sample_VP021",-10.0841045605664,-0.638939828026728,-0.893941265943932,-0.560932868563585,-0.287903603799975,-0.767461904912513,0.175495171250207,1.35328653151498,-0.858509399611076,-0.784483377306924
"AGCTCCTTCATCTGCC-Sample_VP021",-6.49680258606531,-2.88197511049401,-0.22352831320981,0.833667889052059,-0.0397110848567903,-1.58777911261384,2.13601271366679,-1.03796467128637,0.0796896279467341,0.94717081224683
"AGCTCTCCAACACCCG-Sample_VP021",-9.51649605471983,-5.37952641049523,2.55515178328709,0.539006750818921,-0.538959269243073,-0.275991833464898,-0.474082053483099,-2.18205995434806,-2.12148943450757,0.413434207918533
"AGCTCTCCATTGAGCT-Sample_VP021",-11.866033324142,-5.22083825201393,1.45182325108879,-0.21985963478218,0.324361979471468,-0.0546789346492582,3.74967618918867,0.112811741520786,2.36195657855816,-0.571250956124021
"AGCTCTCGTACAGTTC-Sample_VP021",-12.5399624623026,-7.28084632669579,2.50137016565188,-1.85674641834697,0.0423339424502678,-0.203871005950666,0.0513543862505117,-1.74059563145082,-2.15712154005464,0.129810842557875
"AGCTCTCTCTGTCAAG-Sample_VP021",-11.5639260015393,3.61431927392948,1.03261717006387,-1.0341390141817,2.67958539638154,-0.790949872774157,0.102481176641047,0.44343790382129,-1.77954495069083,0.91395028205964
"AGCTTGACAGCTCGAC-Sample_VP021",-12.3452712985018,4.44856508521086,4.36309986206295,0.338460174852449,1.8322152029037,2.37369260316308,0.920453697106654,0.053405640820132,0.557650714572176,-0.247249534415239
"AGCTTGATCACAGTAC-Sample_VP021",-11.9367495915918,-6.55731942147669,1.27411941266242,-1.18780566816219,-1.51551671281944,-0.143986306218667,-0.897960813341011,-1.68240672608056,-1.24060602901054,0.11560371767344
"AGGCCACGTATCAGTC-Sample_VP021",-11.0872633872541,3.20801864373106,1.05324980542368,-1.18108463027948,2.4606937783108,-1.25751627101517,-0.640882656570718,0.252581508950546,0.234699073749312,0.219467732300163
"AGGCCACGTTGGTTTG-Sample_VP021",-5.64930989593854,-0.503952248612738,-2.62151003804014,-0.983123001526777,-0.74321652152602,-1.42005038000004,-0.581756900593687,0.3319617743838,-0.876182673482528,-0.224920982783951
"AGGCCACTCGTAGATC-Sample_VP021",-12.3816877721636,-5.36791285423615,1.68098069825715,-0.4677848322757,-0.167861794444639,0.556419230031677,-0.641074897390025,0.144533546152955,-0.64341931867957,-0.244098030483073
"AGGCCACTCTATCCTA-Sample_VP021",-12.68169050053,4.52461050804311,3.65164993779455,-0.225952397943398,-0.478270003849625,0.538115598821184,-0.754389601080291,-0.293546623004633,-0.557605556025584,0.300238189913363
"AGGCCGTTCCTCAATT-Sample_VP021",-13.1777720796321,4.03143687306089,1.2425252131433,-1.5172386149731,1.31086973793779,-0.775575799285421,-1.59426992218716,0.610774418648116,1.5315071361177,0.124427572541752
"AGGGAGTAGTTATCGC-Sample_VP021",-11.831876481838,1.69325625821918,1.77266640945092,-0.901017587584711,3.67167057959853,-0.116283356767646,-1.98215285241423,0.91872945321447,1.11844598286845,-0.434692085955388
"AGGGAGTCACAACGTT-Sample_VP021",-12.4807330157493,5.93681949947641,3.76860356731109,-0.744902046013771,1.52954910028622,1.78843477753599,2.02126072585097,0.133073875917008,-1.83322925009556,0.167273450383791
"AGGGAGTTCCGGCACA-Sample_VP021",-12.836522948453,5.47090146341513,4.88517758256913,-0.283125699632585,-0.544188874668094,-1.50645974911134,0.0817645667968269,1.30539796905191,-0.256207814930416,-0.360131787682107
"AGGGATGAGGGAAACA-Sample_VP021",-11.5111231199482,1.71188498153172,-0.825076654201755,-1.90693490731237,2.00567893677487,-0.713376285060473,-2.74954917332738,-0.475771460956051,1.72716948333167,0.907648481375667
"AGGGATGAGTCCATAC-Sample_VP021",-10.5672200902613,4.26061121689277,2.48173687188265,0.0376168764075045,1.38984225950624,1.14131202580386,0.137898818797154,-0.547734128596685,-2.11275955958864,-0.23356715250906
"AGGGTGAAGCTTCGCG-Sample_VP021",-10.9657949493969,4.4887197255473,0.339133251907051,-1.64463395342332,-0.313819786752495,-3.97740764888352,-2.71890596745077,-0.707678061877241,0.999653114340508,-0.342562384570171
"AGGGTGACAGTATGCT-Sample_VP021",-7.74655907879121,1.78938981866987,-2.32108627205498,-1.70787899433828,-0.456745922449319,-1.93996198206292,-0.905668984992536,0.879487189108111,-2.92211403430366,-0.105553315068164
"AGGGTGACATGCAACT-Sample_VP021",-11.4019834469748,4.04571580819276,2.0757573535702,-1.73612555013706,1.8980992375374,-0.19236105339942,0.919441345574573,1.77902627990144,0.214089815877234,1.12599889137811
"AGGTCATAGAGCTGCA-Sample_VP021",-10.5704159493719,4.46165828106604,2.78668008885868,-0.539677114051897,1.29888034935303,1.11145206743806,1.5621920689453,0.269847172645274,-1.75598841809941,-0.874177511876042
"AGGTCATGTTGGGACA-Sample_VP021",-12.4837897955697,3.68856545661003,2.04132999417626,-1.64996825608304,1.24476788481091,0.280576362992566,-1.18664697835752,-0.388366225839948,-1.60058433229851,0.455309126008995
"AGGTCATTCAACACGT-Sample_VP021",-10.370397603359,1.1779203957928,-2.92326510906431,-0.739284108627041,1.86372901521037,-1.17431006114908,-0.271342987891524,-0.724937028295786,-0.942554095601087,-0.827460397702832
"AGGTCATTCCGTAGGC-Sample_VP021",-10.6434458121628,-6.90488413191396,0.513795906866613,-1.25469809874789,-0.481643788840858,0.919723188694313,-1.77822091344322,-0.25529464483903,-1.11211459252564,0.203506658172169
"AGTAGTCAGCGATCCC-Sample_VP021",-9.78393340299675,-0.443247094742032,-2.16859070210542,0.352860466068935,2.09054277857897,-1.476591345495,-0.392197590205676,-0.246820072507699,0.108820395582058,0.233523089870406
"AGTAGTCTCGAGAACG-Sample_VP021",-12.5128548904432,-6.13367358131391,1.08476152762695,-0.952587664690359,-0.161949264633994,-1.23082631079911,2.75890159023943,-0.327793623530922,-0.027726142437889,0.409136443755846
"AGTCTTTAGACTAGGC-Sample_VP021",-12.883980789156,5.42416170061302,2.25592460922311,-1.09924162728259,1.90506505070841,1.0392703797831,0.0212415411661058,0.295513848594502,-0.977496709688993,-0.355659080080083
"AGTCTTTAGGATATAC-Sample_VP021",-13.3395875144873,3.70112558837935,2.41247155048757,-0.934617389541042,1.22274337250207,-1.52766936547049,-0.963101504522486,-0.0746460346266667,0.394024543463417,-0.296649218009323
"AGTCTTTTCTACCTGC-Sample_VP021",-13.2152019787614,4.95663305275584,3.09569311228135,-1.15286610156265,-0.136703745013799,-0.127887220336033,-1.70331477574766,1.25711711425855,1.81886383052658,0.273298130870643
"AGTGAGGAGACGACGT-Sample_VP021",-12.8127465963093,-5.09436051649398,0.727101999852738,-0.0146471152478802,0.453146461280853,-0.176032988197373,2.40743017294077,-0.107198991014369,2.26206882638739,0.775352381840242
"AGTGAGGCAGGATCGA-Sample_VP021",-13.0162637914406,-7.44675920388123,2.25633656995475,-1.06661414873149,-1.090523555812,-0.698621051396397,1.68433365563163,0.152129177171984,0.250787175544413,0.396392669446711
"AGTGAGGGTCTTGATG-Sample_VP021",-11.8831934494571,3.29148439867895,0.482119572466455,-0.746573536901194,-0.383336693636573,-1.93818831497755,-0.85117313659363,0.202562772229451,-0.474486612058131,-0.286746182662655
"AGTGAGGGTTACCGAT-Sample_VP021",-12.3737602895202,4.50556958822826,3.40200300214451,-0.704058162099346,-0.909070056196899,-0.039545075674174,0.666112057686748,-1.26749773742398,0.511660812342962,1.03563010085913
"AGTGGGACAATTGCTG-Sample_VP021",-10.8596477602868,3.57823633778754,2.25609320958013,-0.896332762411388,-0.517418014754602,-0.228966302026195,-1.32912580828606,0.231896762004984,-1.08028420375477,0.821985149091597
"AGTGGGACACCGCTAG-Sample_VP021",-13.8188172478389,4.23221653804212,3.11490478752022,0.68467692779016,1.0934661878482,2.2113762429636,0.605397773719048,-1.11212395302487,-0.616734477622013,-0.0996397704930456
"AGTGTCAGTACGCTGC-Sample_VP021",-13.3409531689082,4.16250439663508,4.35123956291816,0.0337441999153284,-0.0601074704878547,1.85077084584765,-0.0371020128106488,0.988181400363383,-0.205052858133354,0.205168814952808
"AGTGTCATCAACCAAC-Sample_VP021",-12.379421113466,4.13982056811264,2.59938317614107,-1.68388326384591,0.0222857536724727,-0.527381548651149,-0.752888470807251,1.30362650494777,0.648058434582287,-0.185065668377673
"AGTGTCATCTAACTCT-Sample_VP021",-9.02226188792918,-6.15949189875999,2.00944433355177,-0.768224832670496,0.564531556491717,-0.0945565709254941,-2.23711923402477,-1.78323588965194,-0.880569684110356,0.138697102831426
"ATAACGCCAAGCTGTT-Sample_VP021",-12.8342882475078,-4.426797089495,1.3243130103921,0.805958279602957,0.0238519313226425,3.0314753770216,-0.200859555679139,-2.18216591030631,0.871751140948674,0.63157054597549
"ATAACGCCAGGAATGC-Sample_VP021",-12.895101140987,4.01219342152455,1.51918305443071,-1.4201829282846,1.70095834657739,-1.68059378372822,-0.343005140505877,-0.165889965136083,-1.4065166199539,0.591615760461916
"ATAAGAGAGCTACCTA-Sample_VP021",-13.7136611274969,-8.42983334455267,1.96732956429248,-0.21376864545962,0.464636190975951,-0.641969884887546,0.0948590832635084,-1.5132564226968,-1.34695845358685,-1.04077874049816
"ATAAGAGAGTCGCCGT-Sample_VP021",-13.6278080582248,5.29527958629082,4.74258049124925,0.0138602263400782,0.325564271619914,-1.36413371573152,0.214110171391362,0.747913530822224,1.79376495860174,0.953186284279758
"ATAAGAGGTTATGCGT-Sample_VP021",-14.1466662872281,5.4239582715044,4.24876278439478,-0.478975896616061,-0.973969867142304,-0.69723237566346,1.20898747863342,-0.467839707207173,1.57053305511331,-0.0552752820920732
"ATAAGAGTCTCATTCA-Sample_VP021",-11.9302872454595,5.91132661530188,3.65180799497466,-2.39697421686193,1.77086258338829,-2.35836832861486,-1.43380314509548,0.734719025778014,-1.6920388374137,0.0853028541018825
"ATAGACCAGAGTGAGA-Sample_VP021",-12.3396198979075,5.37764244997121,1.93685279308653,-0.88596788734552,1.47928299335516,1.40589414867956,0.153902308149925,0.606893797205036,-1.99871424039529,-0.357369431290044
"ATAGACCCACAGTCGC-Sample_VP021",-12.2077768314532,-7.08314131979967,2.44986098825609,-0.383715947732017,-0.570248807942004,1.59032098745484,-1.43223790551976,0.660272857304624,-1.12049447661944,-0.171472181795247
"ATAGACCTCTGGTATG-Sample_VP021",-12.9291596846389,3.96479383926463,3.73451242362558,-0.243633138275887,0.266861885006494,1.4794280921264,1.17974929582105,1.6741660249696,-0.577819189391616,-1.12933214645722
"ATCACGAAGTCTCGGC-Sample_VP021",-12.3392385260136,2.91223799390536,-0.1420603735683,-1.14826534900325,2.37615088295299,-2.57381511380946,-1.63270405666194,-0.656165066096234,0.688691464492671,0.0395481673382868
"ATCACGACAGGGAGAG-Sample_VP021",-11.5782805235746,-6.80231266297082,2.5702237853379,-0.887432526145712,-0.345645764800316,-1.20761867018282,-2.78971931077747,-2.20507733392491,-0.833844002477699,-0.349704860494512
"ATCACGAGTAAGTTCC-Sample_VP021",-7.34210914134306,-0.804490126474327,-1.92809292200466,-0.547201616900044,-0.128865474495575,-1.71072447765096,-0.53206083102512,0.389756629769968,-1.60565878668742,-0.455716688933547
"ATCATCTGTGTAAGTA-Sample_VP021",-12.4718649987184,3.39930756526765,0.826369399864054,0.74215069636696,2.81422528999673,-2.94930336248407,-0.603343749132518,-1.10249746335705,1.59592895711646,0.208148640330369
"ATCATCTGTTCCATGA-Sample_VP021",-11.6783593943356,-6.0273626669569,2.05777614615442,-1.66572249082471,-0.313187018406665,-3.97975694724752,3.33424651347334,-0.4111396402449,-1.09250894090922,-0.818242598105475
"ATCATCTTCTTCCTTC-Sample_VP021",-12.9678166301573,2.79343117137539,0.915145920061518,-1.19753416019931,3.58872094911732,-3.03470588257452,-2.67020516059828,-0.0975385384140458,0.661656962005993,-0.0765335702648872
"ATCATGGAGTACGCCC-Sample_VP021",-12.9594614669714,-7.54019775064283,1.91070313577778,-1.06691753975034,0.222546020761061,0.0729712920302953,-1.78445996936624,-0.92425909534707,-1.65044018058603,-0.474047461590165
"ATCATGGCACGGCGTT-Sample_VP021",-13.4922985508412,-8.77582997573726,2.45285720789062,-0.497680539767409,-0.361529500255889,-0.415557552662967,-0.394993403367684,-1.18628763450332,-1.94407468333597,0.562738605991874
"ATCATGGTCCGCGGTA-Sample_VP021",-11.793576763901,1.81431746338551,-0.378196531097589,-0.435741238101912,2.38538572741792,1.17836489676255,-1.3275135608183,1.22829547960438,-0.0769099271267961,0.68185743638043
"ATCATGGTCCTTTCGG-Sample_VP021",-12.7279668755568,-7.67824184060962,1.73509497411705,-1.18056681990177,-0.446993338489327,0.564595332066707,-1.34414964376736,-2.15016594934512,-1.68694837818285,0.228870530586304
"ATCCACCGTCAACTGT-Sample_VP021",-8.69973063251784,-0.112334269274276,-1.9223642131918,-0.0513981231762733,-1.97344870398854,0.906119609653159,-0.732305560993913,2.35124999931008,-1.31834948277273,-0.0500889673530064
"ATCTGCCTCCAATGGT-Sample_VP021",-10.3743434806285,0.274985321562859,-2.4363292198357,-0.688327007399528,-0.771901544449683,-0.328316641439306,-1.29616836863593,0.613698363860627,-2.34306620300705,-0.0940422733055431
"ATGAGGGCAGCGTAAG-Sample_VP021",-13.3334329979921,6.36502748092996,3.0617130847619,0.118187081615742,-0.57957687306314,-1.35568063364039,-0.574724533223062,-1.682412547212,1.47352145671797,1.13806995126959
"ATGCGATCAAACTGCT-Sample_VP021",-12.0389344054752,-6.4630771004023,2.33999509991814,0.000360578729631931,-0.253297924218701,0.66971160635448,0.316372373144216,0.91297917727053,-0.389937722061855,-0.263475435480311
"ATGCGATTCACCACCT-Sample_VP021",-11.8634655078546,1.8581167130999,-0.189796659289339,-1.02001789493423,1.21164839819922,-0.430164236101589,-0.0594007972285092,0.61667156818115,1.75668421098854,0.593361285472938
"ATGGGAGCAGCTGTGC-Sample_VP021",-14.0112063207773,-6.55384674410013,2.76432767152221,-1.4033280504092,-0.0739925561948787,0.869852752610524,-1.08385495525045,-0.80692125440173,-1.59030429610232,-0.720013267261871
"ATGGGAGGTCTGCGGT-Sample_VP021",-13.5234949789289,5.61460827013349,2.20584119648107,-1.17525781687412,1.56679313623952,1.11801933355742,0.790916710075887,0.0158037126792129,0.781027485167323,0.488061048469164
"ATGTGTGAGAAAGTGG-Sample_VP021",-13.484007888382,4.63754234742727,4.98153629959604,-1.53046974023691,-0.19485999651919,-0.0795331883452466,0.423118031188771,0.416741423625133,0.586524092784284,-0.377672883833112
"ATGTGTGGTAGAAAGG-Sample_VP021",-10.1904815812788,-5.83836575525404,0.138820986308596,0.399133771014954,0.436906011863383,-1.76791809667928,2.68273621366858,-1.83191014149628,1.0220915921969,-2.40824830587439
"ATGTGTGTCAGCTCTC-Sample_VP021",-12.4074633814576,-8.37677734336906,1.61446233931154,-0.8437933788785,0.199835633301111,-0.19281156613602,-0.613100319745203,-0.959415753821733,-0.474807129759711,-0.645498067779485
"ATTACTCAGGTGATTA-Sample_VP021",-12.4937539085022,-6.6537031241314,2.96320875784776,-0.917240643785655,0.651480356417501,1.01571137290938,-0.84765512826342,-1.12671914449591,0.581440804888686,-0.487750533649725
"ATTATCCAGCTCCTCT-Sample_VP021",-11.6404303796195,1.13676364865894,1.47877475797936,-1.07134986044583,4.08869617995331,-2.4595293016177,-0.828977245160433,-1.16767975552203,0.571949396176187,-1.08913444238237
"ATTATCCTCCGCAGTG-Sample_VP021",-11.952569466051,-6.44127746897753,1.92264210242059,-1.48532340017397,-0.825460737163512,-0.38156579901776,-1.90230326618412,-1.05445632856998,-1.42548993452591,0.858493004730521
"ATTATCCTCGAGAACG-Sample_VP021",-7.50930556948661,0.0616218357363865,-0.779996609901005,-1.69144962072929,0.235510132417133,-0.378253946109237,-0.2134106081907,1.69091680538461,-0.520945010418414,-0.711726455319212
"ATTCTACTCTACCTGC-Sample_VP021",-11.1821467773809,1.21435466133065,-1.43048101992854,-0.5038914822976,2.5081706933946,-3.28994600527563,-2.25951162185846,-1.20099989624919,2.01900341521565,-0.148299917533442
"ATTGGACAGCGCTCCA-Sample_VP021",-10.1094606383011,-6.02064452803701,2.7184147622284,-0.290134246485727,-0.772303909291706,0.285775922269677,-1.60919779283685,0.39921796927379,-0.992775056214624,-0.708634355600259
"ATTGGACCATGGTCTA-Sample_VP021",-13.0555345475998,3.46767028671551,2.41639975606955,0.124555857774707,1.7330648474247,-0.0309732217425388,-0.692726278592048,-0.71644273154719,-0.521729575871867,-1.04878284281586
"ATTGGACCATGGTTGT-Sample_VP021",-11.9484462160272,-7.22648890508245,2.05470632716738,-0.581136540278878,0.360417063642301,1.45056687633713,-0.754205133227242,-1.97642421120574,-2.2421094019513,-0.190949521090059
"ATTGGACGTGACAAAT-Sample_VP021",-12.4925376269392,-7.2015403874442,0.900721388337202,-0.995163030057244,0.992555694965509,1.7785196195758,-0.845961909045115,-1.25132426435472,-0.247747648443299,-0.954239920503797
"ATTGGTGAGGAGCGAG-Sample_VP021",-11.081552620623,2.84803394426262,0.638939784535544,-1.91334607807737,0.903508594842026,-2.06018062410668,-0.772043984463863,-0.835912328092182,-0.455941844336702,0.0486507769791575
"ATTTCTGCATCAGTAC-Sample_VP021",-11.2724277210894,5.16957016940947,1.99007533601936,-0.364031911955134,3.52760266703063,0.619464781269035,1.98955710387938,1.92221386562771,-1.78091397592539,0.124792286833849
"ATTTCTGTCAGATAAG-Sample_VP021",-10.4608414576256,2.80612037777597,-2.23762353024718,-1.19754301812457,1.31160128877477,0.581704273336226,1.36336519141549,-1.69627822306591,-0.486055925972123,0.54968827696969
"CAACCAAAGATGTTAG-Sample_VP021",-12.1383477990396,-7.87127748539979,1.80942614642965,-0.812553817016202,-0.422978292869114,-0.102831206567388,-0.700839630804426,-0.515404356978075,-1.12615250272935,-0.747280008964005
"CAACCAAGTCAACTGT-Sample_VP021",-12.8524066514615,-6.80274141546421,1.31689955152231,-1.08523906550812,0.0782252180675999,-0.575845535840851,-1.66351252009487,-2.56416911439292,-1.25460857517397,-0.703079978712093
"CAACCTCAGTTAACGA-Sample_VP021",-13.0615151855378,3.89621623972761,2.10644063981697,-0.753231184586583,1.31993871059587,0.274946282674812,-0.863644334246946,1.19769722296196,0.329024010316424,0.0657384159222556
"CAACCTCTCAAACAAG-Sample_VP021",-11.4126132735826,-6.19757480422304,2.10996975985672,-0.961834477936249,-0.109221253192088,1.42248390408133,-0.751782272417564,-1.57416465681037,-1.91335416291521,-0.126861323187852
"CAACTAGCAGTAGAGC-Sample_VP021",-8.78638793835674,-2.14499410721948,-2.61316671857718,0.00595755505940461,-1.51736875822094,0.342307901413327,-2.00705156550488,-0.00710474661395554,-1.82990456659738,-0.185787010865924
"CAACTAGGTGCCTGGT-Sample_VP021",-12.4908498976388,5.08993192657154,2.58730323501402,0.792947674826287,1.21524977832013,2.10667258143831,0.854208189188921,-0.270426299778072,-1.15505636135863,-0.164482460925929
"CAAGAAAAGCCACGTC-Sample_VP021",-10.6100734952614,1.98371776114831,1.15037624448048,0.517696942453479,1.70418990023087,-0.38897835369108,-1.61375484893918,0.512065439065837,0.48328431169035,-0.468107642612818
"CAAGAAACAATCCAAC-Sample_VP021",-9.80946138298752,-0.620297845516349,-2.5694169751147,-0.942614138768051,-0.926612359784701,-1.17028332335819,1.18280462422547,0.354665009914399,-1.01290018373068,0.148108145375303
"CAAGAAACACGAAATA-Sample_VP021",-12.1564514986726,5.3407079578648,4.03292481979055,-1.71181537076117,1.84433847976928,0.0435564278956537,0.485974604839066,1.39713706582686,-0.59057341178487,0.214882540297864
"CAAGAAAGTAAACACA-Sample_VP021",-13.4422080861841,-7.33278488070205,1.47149763852964,-0.240185199944672,0.0194251182820799,-0.655156886086285,-1.46189396644094,-2.8914064207192,-1.40889681899321,0.232561536213857
"CAAGATCCAATGTTGC-Sample_VP021",-10.9951061007808,2.09933543566249,-2.73363560346394,-0.533109768511063,0.208170498312114,-1.07124378341604,1.28715107492029,-1.23979806258958,1.32287299769539,0.471362333306188
"CAAGATCGTTCCTCCA-Sample_VP021",-12.1691405633479,4.99915445560959,2.60435357077408,-1.05212701356614,1.09754152277652,-0.225363803534365,0.656495050371101,-0.756628113634019,-0.309963875181514,-0.55538236862735
"CAAGGCCCAATCAGAA-Sample_VP021",-11.7636490252684,-6.23482630354559,2.23126608085836,-1.52834779760935,-1.02582365806,-2.09965840660505,3.56526571260884,0.270053005184414,0.95047151171882,-0.491665509295409
"CAAGGCCGTAGCGTAG-Sample_VP021",-10.1691548410798,1.70625630270284,-2.42555567250741,-0.408604661060686,0.572568506863251,-2.50501090509699,-0.988117057817171,-0.787406994884752,-1.28718713103816,-0.485187515437166
"CAAGGCCTCCCGGATG-Sample_VP021",-11.9419987752852,5.53641482277064,3.25916095732659,0.0494289200528815,-0.405854347732688,-0.631724777003652,1.31142261006975,-0.78237654750144,0.947436413145562,0.666227555878098
"CACAAACAGGATGGAA-Sample_VP021",-10.9426117121524,1.50529005109137,-3.75365444972769,0.461606800543786,0.275317580401578,1.97521651028251,0.752016912240812,-1.24016129883678,2.09151008745429,-0.0845172505971759
"CACAAACGTACAGTTC-Sample_VP021",-11.3656044227485,0.657394662098007,-1.84674006317108,-1.87951792038315,1.80008885129002,-2.10873554015975,-2.81600332730674,-0.21861376350665,2.64939788853198,0.982951906894804
"CACAAACGTCCAACTA-Sample_VP021",-11.5544211854462,-8.54597760238406,2.01769588976257,-1.39717458404945,-0.713207260204911,-2.39998964832756,3.39302436705634,0.885254407493959,-0.0196029190833536,0.548713651294735
"CACACAAAGACAAAGG-Sample_VP021",-10.8546764608417,1.36167298174702,-2.17792829436705,-0.747106213177645,0.649974425641988,1.1778025059314,1.51888149795742,-0.84411095593699,0.708905433938324,0.600358473926459
"CACACAATCTCAAACG-Sample_VP021",-12.4424588153538,5.63527491465281,1.96916060520778,-0.682582723319815,0.156066077072862,0.732102218496556,0.552558785179152,1.81207511702812,-0.30975835655228,-0.0988690556673867
"CACACCTGTCTAGTGT-Sample_VP021",-10.409375607354,1.09885173643288,-3.64083936964796,-0.640471416838197,0.199049292913179,-1.48871905166693,-0.394756721014708,1.08452513641821,-2.02995052562368,0.152219030490012
"CACACCTGTGCGAAAC-Sample_VP021",-10.2435478354957,1.44459587120867,-3.15210784797102,-0.601423760522049,0.650615552412983,-1.12074134648124,-0.409573563184764,-0.0360973168517234,0.0221654479569888,-0.0170254155847966
"CACACTCAGGATGGAA-Sample_VP021",-12.0538950320308,5.02504514647537,3.39503135102827,-1.87977947653244,-0.58627853293794,-1.36125800426424,0.935332432738608,-0.691570074803733,0.321905668853985,0.323743125328763
"CACAGTATCAAGGCTT-Sample_VP021",-10.7201648767575,-6.64614444590562,1.18426971134574,-0.487014792185542,0.174975362151795,-2.74476773977067,1.89188339565159,-0.578096023966969,-1.31810204194375,0.874836158367775
"CACATAGCAAAGGTGC-Sample_VP021",-8.9678436494168,-0.15009075416869,-0.673993568696132,1.31476079601411,-0.673522913583417,-0.389612876646074,-0.771931122245889,0.25327191488758,-1.29139398264717,-1.19582757201746
"CACATAGCATGCATGT-Sample_VP021",-12.5748192952339,3.25085464587036,0.912684775744187,-1.84251611637727,2.34972722903719,-2.8102498639379,-1.17556357868036,-0.0417464429633894,-1.47873875167054,0.393865161854547
"CACATAGGTCTAGTGT-Sample_VP021",-9.17766026642542,-0.72029413098618,-3.83318746645553,-0.548949199618691,-1.48544815734356,-1.60268867820898,-0.475840307747327,0.546345133900587,-1.18757032763938,0.176108275785959
"CACATAGGTCTCTCTG-Sample_VP021",-12.4576823203826,-6.9026478515384,3.36441663810055,-0.547065209437838,-0.666318052648473,-0.284995065676137,-1.2627206206831,-0.980768863560867,-1.08762979171333,0.664497974179301
"CACATTTAGCTATGCT-Sample_VP021",-12.5705107079943,5.56265962853928,3.50808366722389,-0.229249920766841,-0.918802699503402,0.472164060143365,1.89068600266948,-0.205884276571647,0.194641079596467,0.557064162279933
"CACATTTCAAGGACAC-Sample_VP021",-12.2631935807713,5.68633275217416,3.11109641390094,-1.80496316121999,0.78433481769806,-1.54353479150072,-0.885908361113325,0.919053624633373,0.848487374687111,0.0928820013001121
"CACATTTGTAAGGATT-Sample_VP021",-11.9026753396054,3.859669599988,2.04558315345998,-1.66529755862287,1.59838548096947,-1.86320503790389,-1.43508825073996,1.22261088150534,1.53766756968081,0.427150853869308
"CACATTTTCTTCATGT-Sample_VP021",-12.1989320139631,1.88328073720863,1.2235413250815,-2.04302073550679,1.41128366075393,-1.23521134972738,-1.69568798910849,-0.325573536210283,1.79278601287655,0.552466656019065
"CACCACTGTTTAAGCC-Sample_VP021",-10.2986844840575,0.77849618757198,-2.66497351077583,-1.19913199839704,0.348898534161996,-2.50061775999221,0.0598951687193863,0.647008065886425,-1.09703407689321,-0.289617298969352
"CACCAGGCACCTTGTC-Sample_VP021",-6.0889295601101,-0.223435734458676,-2.65579294394722,-0.859431525598564,-2.72502464613198,-0.284746936622374,0.238826970410242,1.4615960625915,-1.41845680171697,0.234384706480293
"CACCAGGTCCGAATGT-Sample_VP021",-12.661375651916,-8.56316765489914,2.04772463469205,-1.26244212306786,0.52894106277857,-1.83326359862109,2.60490843836981,0.45176848843088,-0.380961308097913,-0.588219649854773
"CACCAGGTCCGTAGTA-Sample_VP021",-11.6443176540363,-6.36332621603373,2.1787502675526,0.0684703338004073,0.756630992921127,-2.1111021097944,-1.33283446473969,-1.41274842585864,-2.48538203530575,0.217913273181793
"CACTCCAGTCTCTTTA-Sample_VP021",-12.8185486906247,-5.82824328942541,1.64850519659792,-0.438456953323132,0.808577199977709,-2.4277591149898,1.15393768902682,0.317417108773343,-0.76136015940547,-0.112118950059342
"CAGAATCCACAGCGTC-Sample_VP021",-11.6771150271737,3.35267021803884,1.60523703322538,-2.24748694670965,0.390747874859966,-1.29431962309382,-2.82052575949862,-0.233717930417114,0.871330930998397,0.202389510613826
"CAGAATCTCCATTCTA-Sample_VP021",-10.4531970653526,5.39021993974906,1.72508693558563,-1.16481587287932,0.996775817457197,0.820228363599637,0.601461139300595,2.41609465535853,-1.50002320417351,0.461041585687337
"CAGAGAGAGGCGTACA-Sample_VP021",-13.0541265731678,-8.94851551487273,2.79283157141302,-0.735345896608082,-0.430614984602568,-3.78437278379739,3.87598152060875,0.177849027842934,-0.337460220146085,0.21338995932299
"CAGAGAGCATTAGCCA-Sample_VP021",-8.26527009459994,0.966015493777388,-4.67920278380939,-1.04035412414333,-1.33427530855952,-0.35668106344003,0.105012590483306,0.574450582143393,-0.780970056706869,-0.445505743913692
"CAGAGAGGTTCCCGAG-Sample_VP021",-8.49473781549403,0.966552203815616,-1.05496398488902,0.707748426244767,2.14629557176376,0.36107236943166,0.800674903335133,0.912073910301372,0.326437075026188,-0.222514951161788
"CAGAGAGTCACAGGCC-Sample_VP021",-12.1211489259801,-7.70492969379792,1.89523118070963,-2.32960114152128,0.385343684432146,0.41591303798374,-1.86350601033656,-0.468826694485292,-1.22726262655443,-0.312283791467675
"CAGAGAGTCAGCGATT-Sample_VP021",-12.5630661303323,-6.91566161112011,2.73069605233402,-1.93047901707183,0.0230439674274611,0.856182533801749,-1.56113784069718,-0.944906173103091,-0.605586730741191,-0.288150675566971
"CAGATCACAGACAAAT-Sample_VP021",-11.950264382519,3.51575620611094,2.60217858172579,-1.31719175401258,-1.29502712332483,1.42606380707943,2.24893965053444,-0.396542914963412,-1.432547967346,-0.390438190841468
"CAGATCACATCCGCGA-Sample_VP021",-9.25814398045942,-0.365528498343972,-3.15619547565179,-1.10425547396331,-0.376918007263073,0.924691404651812,-0.588047483549458,-0.755766203699481,0.833578637826417,-0.25305896495979
"CAGCAGCAGAAGATTC-Sample_VP021",-9.51399340551611,0.714772700637463,-3.2103918444229,-0.718579920833974,0.181335910031049,-0.715313248597119,-0.282572242467164,1.7912534057187,-0.891186662747278,-0.435183165058335
"CAGCAGCCAACACCTA-Sample_VP021",-11.7832744626663,2.60107072168484,1.67358453290019,-0.396547512894253,2.90701853501159,-0.600166123661386,0.990245236642483,-0.582481975754232,0.247934354565799,-0.0475461670478859
"CAGCAGCCATCCCACT-Sample_VP021",-10.7266580446742,2.97643636158323,0.83483361944499,-2.19440587052719,2.14720599872578,-1.65642178220559,-2.13937243179465,-0.897603333120969,0.980704614856433,-0.0200933892436293
"CAGCATACACCAGTTA-Sample_VP021",-12.6555831867489,-6.92902122797376,1.22032242501393,-0.858660530050826,-0.333134148746593,-3.04529490068004,3.28830504785765,-0.0634234619498661,-0.447492686616078,0.792807496223175
"CAGCATACAGGTGGAT-Sample_VP021",-11.252908144568,-6.935802979116,2.61186454937447,-1.03403473412943,-0.312577936201716,-0.109058502694108,-0.817802507156859,-0.334831809740677,-2.32644262387715,-0.453196394020586
"CAGCATATCGCCTGTT-Sample_VP021",-12.3687869892653,-7.89070546062834,2.77003113254364,-1.22426067057212,-0.603369602647614,0.996924764040828,-0.834616360821104,-0.305946764435787,-0.686552916156665,-0.284393826719375
"CAGCCGACAGCTTAAC-Sample_VP021",-9.73658145579173,-7.0400479783344,1.42204646386624,-0.778133700100522,0.291764075136683,-0.822840667835865,-1.40825095731074,-2.17839858895323,-1.31924572203365,-0.602195716730342
"CAGCGACAGCGCTCCA-Sample_VP021",-9.70187302880303,0.500591160677694,-1.08944689485847,-0.679687966083255,0.510700439048512,-1.33002465126273,-1.08905872359833,0.354088066176169,-1.8868277211666,-1.06033385554938
"CAGCGACCAATGGAAT-Sample_VP021",-9.8700502804428,4.25839589426114,3.14690918121847,0.11072627582533,-0.166959745260715,1.78980651844735,-1.26806161557193,1.89670698286581,-1.37464235912181,-0.34501948597392
"CAGCGACGTGTGGCTC-Sample_VP021",-11.7135654460114,-5.69791883862058,1.20367929064949,0.533144581251444,0.186438152760389,-0.0414349521920381,-1.68260157886077,-2.42471298669391,-2.52408620979316,-0.946855696608148
"CAGCTAAGTCCGACGT-Sample_VP021",-10.7278278094189,-0.104791154311065,-2.65931791411371,-0.643943758152861,-0.70987874956327,-0.338387409937948,0.816657411976545,-1.08969770381861,-0.169014563488843,0.349579654359898
"CAGCTAATCGTACGGC-Sample_VP021",-10.0212755356653,1.40377725370055,-1.31580513528491,-1.08177156039108,1.808232601342,-1.68353637233674,-2.39535736893048,1.38824531240124,0.0122115742602407,0.0647361048204584
"CAGGTGCAGTTAACGA-Sample_VP021",-12.2452268941252,2.7781924771882,0.296070783029674,-0.460839791072225,-0.364815189532439,1.08036807267986,0.5290208703147,-1.69337877985623,-0.665399106113159,0.875309812594364
"CAGTCCTCAGGATTGG-Sample_VP021",-12.8396658021959,1.05490981668268,-0.164350176167879,-1.13450771913363,2.17609841912261,-2.97353477533675,-1.6111376435463,-0.448803498515127,1.46171542370446,-0.0984061441233694
"CAGTCCTCATCACGAT-Sample_VP021",-9.65411495099748,0.0383681886897144,-2.66190208759212,-1.12934251240906,-1.80238367020174,-1.39336118080376,-0.928212719245826,-0.678714040905994,-1.02857990986096,-0.475871485350939
"CAGTCCTGTCAAAGCG-Sample_VP021",-12.118909962201,-0.116168574459739,-1.57905655093882,-0.150111285282337,1.47845234152294,1.0028980556213,0.279014520127436,-0.703888876189379,0.685711166460385,-0.355251091149188
"CAGTCCTGTCGCCATG-Sample_VP021",-11.4352031947391,-6.50755689606934,0.996391506094967,-0.457577865597036,-1.00834435612646,-0.937147270473595,1.29373021163294,-0.564371621584932,-0.717281055916895,0.733137299413383
"CAGTCCTGTTACAGAA-Sample_VP021",-10.7430883692649,-5.97070529878368,0.0862689031494843,-1.25434333476165,-0.443295209615237,1.57856440360235,-1.4428270634748,1.32210316880225,0.190899146487281,-0.712294771245407
"CAGTCCTTCGTGGGAA-Sample_VP021",-10.8536769585704,3.51965344879166,1.03142407766391,-1.75665738544902,0.979855408968063,-1.22241475554488,-0.786357442545353,1.73163520323255,-0.0477068387702204,-0.171921718300075
"CATATGGTCGCGATCG-Sample_VP021",-11.958571063111,2.57336146587149,-0.439062931982239,-0.333635560640588,2.05381907342136,-0.929433031672759,-1.4941480195465,-1.93156081132669,0.578315531950571,0.450903112321009
"CATATTCAGACTACAA-Sample_VP021",-10.5181864004518,5.31844509836467,1.96849705777599,-0.256830839182231,0.974660534028134,1.16972319748728,1.66402647694671,-1.11209634666627,-1.47178807556058,0.991059924897203
"CATCAGAAGGCCATAG-Sample_VP021",-11.1801077855447,0.563049486503004,-3.04340561505814,-0.594053827601711,1.70098658609066,-1.06204555938897,-0.281967279271652,-0.590559537375194,1.36047722003432,-0.170793680263357
"CATCAGAAGTCAAGCG-Sample_VP021",-13.3157309332925,-5.78975829901506,1.07328654509018,0.485849888684833,1.04381674923484,2.97432721848288,-0.613589043555906,-1.42517020342705,1.35502617017564,-1.71870763267521
"CATCAGAGTCTCCATC-Sample_VP021",-12.552737528848,-6.88758613167103,1.54558412453194,0.00143654517311179,0.0607738053120351,-2.18961811389023,1.32765604897579,-0.868453642290093,-0.890121932367215,-0.29408684868688
"CATCGAAGTTGTGGCC-Sample_VP021",-9.45793219435603,0.227000201949971,-1.33797382986484,0.0501695164652915,-0.225512978911486,-0.222571297584851,-0.128137261636924,-0.951345838353084,-2.59369334107304,-0.443702314665536
"CATCGGGCATCGGACC-Sample_VP021",-12.0633057930197,-5.24021025399253,1.33714596877789,-0.842793867275412,0.237523520548407,0.38173903313761,-1.17819208189953,-1.6375966716294,-0.517940949713413,-0.262464159739751
"CATCGGGTCCGTAGTA-Sample_VP021",-11.88429794062,-6.51733450745187,1.77797147140691,-1.09183218173201,-0.917611339698063,1.66902300371329,-0.310045935144528,0.171663750813848,-0.350386438157126,0.35942241711709
"CATCGGGTCGCTGATA-Sample_VP021",-12.1823373865295,3.03945986882832,0.931864970223257,-1.92732236541796,2.40103322399821,-1.65747903381384,-0.395192291410506,-0.404955135590735,-0.572976003237536,0.334080557139895
"CATGACACAGGTCCAC-Sample_VP021",-11.6827657793924,4.60473159865071,2.48123603529807,-0.241810181000035,2.30532226101184,1.9479385012678,0.616699703689776,-1.43080877182612,-2.11551635267229,-0.86017833800354
"CATGACAGTTGCTCCT-Sample_VP021",-13.3781756617649,-4.75495171256228,1.77576777085339,0.131694418511142,1.4342656146217,3.363206201847,-1.09255667376463,-1.2673025026772,2.33386367966126,0.590916081415818
"CATGACATCACATGCA-Sample_VP021",-10.5012643723974,1.30245994682992,-2.69556425544998,-1.59973383236309,1.63995673934426,-2.19259922333106,-1.54319980361659,-0.0441010821315485,0.648815050896855,0.489952556643039
"CATGCCTCAGATTGCT-Sample_VP021",-7.33003442476861,-3.99648794073745,0.487901937030064,0.0442434893707944,-0.0485160599850293,2.28875072922679,-0.698432473762317,-1.4453165525732,1.69536229778573,-0.208835214176795
"CATGCCTCATCGGACC-Sample_VP021",-12.740959034892,-5.89830297296159,0.891869020501155,-0.169642389716631,-1.36628340329401,-2.07458533915333,2.68848892105959,-0.494076205146706,-0.215354701069864,-0.196909716941537
"CATGCCTGTATAATGG-Sample_VP021",-9.09331556503901,-0.0337360188164465,-2.86548964939045,-0.643932861545975,-1.18605410392374,-0.752899826999297,-1.60870156148096,-0.409282264376926,0.0134461572531544,-0.153161272616705
"CATGCCTTCGTCTGAA-Sample_VP021",-7.88514662658481,-1.55346978937395,-2.8749238874033,-0.388712441546535,-0.784845941564046,-0.732733192303361,-1.60672764255699,1.27209244297556,-1.31438873037969,-1.2360098421706
"CATGGCGAGCGTGAAC-Sample_VP021",-13.0098436166843,-7.69618048806945,1.74404767905997,-0.832967059208408,-0.0763758072684187,-2.85441169866583,2.56954237313573,0.137677432166735,-0.627933020701441,-0.0241362057669132
"CATGGCGAGGACGAAA-Sample_VP021",-13.6998737776274,-6.85870784026844,2.92306023720338,-0.246586284806887,0.905242052130287,0.464310273142468,-1.23236252120608,-1.30233538783131,-1.28155232096234,-0.453239234183251
"CATGGCGTCAGGCCCA-Sample_VP021",-11.8961224202509,-6.36887187451934,1.22661827769581,-0.342779419314956,-1.17727662001348,0.0289713908853153,-0.700006800660718,-1.20095261082073,-1.07362177686907,-0.808477020608268
"CATGGCGTCTCTGTCG-Sample_VP021",-13.4886990025916,5.57198257412436,2.93603942600357,0.913744213890517,-0.364168080543817,1.20483883121887,1.49304269569659,-0.0760071344409186,0.0507671395317949,0.300968797309141
"CATTCGCAGTGGTAAT-Sample_VP021",-9.0302779117088,0.300368153635926,-2.3695822886321,-0.367738466852601,-0.148536468083545,-0.158031367572937,0.72880390875954,0.207076386246882,-1.22948216370077,-0.993239192577105
"CATTCGCTCCTTAATC-Sample_VP021",-11.5612291229989,-5.07005660316982,1.15158097391593,-0.417807048940857,0.212971006449671,3.8150700494204,-0.79630414349985,-1.3161514522803,1.51851368965761,-0.984742493389388
"CCAATCCAGGCTCAGA-Sample_VP021",-13.3548899947659,4.4877693868929,3.27248620561615,0.813438505962731,0.0820350164688558,-0.477444145135667,0.0795438688805449,-0.193100545044638,0.913580400220467,-0.741159064477804
"CCAATCCTCATTGCGA-Sample_VP021",-9.83335247592177,0.79725229045626,-2.44741237104933,-0.760311352618679,-0.248700001491595,-1.38371297168163,-0.323370423748117,0.632727310231655,-1.4490315606167,0.546876467043141
"CCAATCCTCCACTCCA-Sample_VP021",-12.0354673079526,-7.87819465836863,1.64409438614331,-0.245913059916958,-0.624302401783819,-0.554491502014364,-1.65040521233443,-2.26182610424044,-2.94013218357955,-0.762266056261679
"CCACTACCATGACGGA-Sample_VP021",-13.5071106442927,-7.29194698417389,2.3969886554931,-1.08579195734117,0.881216508429042,1.45106005165305,-0.503176263219555,-1.40539280652967,-0.568477547818531,0.207028663015136
"CCACTACTCGCCTGAG-Sample_VP021",-13.5442667490546,4.50075671186985,4.53107349508883,0.0683438988470847,-2.28924856561139,-0.645513332713687,0.208719546716069,-0.195698479295173,0.329622345913652,-0.80638917892867
"CCACTACTCTACGAGT-Sample_VP021",-11.829174263067,-7.29399408298675,1.01741086927813,-1.50468947954737,-0.677984677803949,0.825536668275692,-2.04575069586353,-1.09045731541739,-1.28946787998588,0.458108070143203
"CCAGCGACATCCTAGA-Sample_VP021",-14.3075051814542,5.39018328438084,3.44195568939907,-0.611014204896748,1.96088325824743,-0.145847218782656,0.574440080973289,-0.389716655754897,0.0375721701864823,-0.278240051725221
"CCAGCGAGTCATCGGC-Sample_VP021",-11.8588990951968,-6.75953090029654,1.38802835500527,0.533546451647654,-1.23662055987125,-2.38316355976744,1.76395246024982,-0.190950373525354,-0.185464507175022,-0.610817612538262
"CCAGCGATCAACGGGA-Sample_VP021",-11.6041144906843,3.45762787240018,5.11737331486664,-0.419935206127878,0.816026450858942,-2.65418010525107,-1.5273464315334,0.2311720979422,0.105713466010174,0.21863875516648
"CCATGTCGTTTAGGAA-Sample_VP021",-11.7077535740032,4.69775127556051,4.75771620325524,-1.31626023062262,-4.61683766272904,-2.57165018433922,-3.08326601900094,-0.716071555208363,0.621776032344048,0.848323574151928
"CCATTCGTCCTAGTGA-Sample_VP021",-9.74135547465563,1.66937803254187,-2.60120134319506,-0.970564738709259,1.70163774552342,-0.93400041811702,-0.547291580199842,0.527845271913906,-0.154238259335925,1.14835196978972
"CCCAATCCACAGAGGT-Sample_VP021",-9.60526624978244,2.23806389507193,1.5815957916725,1.00090009022908,1.07839067414572,2.01345799755014,-0.278796520443791,1.5542612640798,-1.92635025167017,0.822712507785524
"CCCAATCTCTACTATC-Sample_VP021",-9.27390179351248,0.0237130629519266,-2.92859833819055,-1.05087864977839,-1.22098204895567,-1.20580053389126,-0.129080831804288,-0.00834248900613147,-0.236090341873949,0.50140302637049
"CCCATACAGTTTAGGA-Sample_VP021",-11.6799041688523,-7.95571006867056,1.61568631934027,-0.360142369746572,0.140172550074126,-0.245959510794474,-0.516469192568959,-1.8341311460534,-0.920861653264934,-0.407635350397593
"CCCATACGTTACGTCA-Sample_VP021",-12.6510202441675,-6.52143550260285,2.06418369245056,-1.07324367071696,0.221989241271913,-3.53976525198815,5.46623117942394,0.0568864437683414,0.120670443578345,0.551005826797607
"CCCTCCTAGCGTGTCC-Sample_VP021",-12.7160984791612,-7.97279365337481,2.15632848882818,-1.37117311640011,0.0111550845493772,0.116815506424784,-1.4347256658008,-1.83545589738599,-0.766860695489188,0.197745402370074
"CCCTCCTTCATCTGCC-Sample_VP021",-11.9269922521917,-4.98748389572524,2.15709295392389,-0.376621415317732,1.53897596319646,-1.90133342776717,1.64528101492599,-1.40743690443902,-0.143811849298175,-0.354511120818001
"CCGGGATTCAGTTCGA-Sample_VP021",-12.3155367029943,4.85970958265561,3.27529697885653,-1.98908080727534,0.637318666031147,-1.82262706394653,-0.428515632164046,-0.664824398824927,-1.9323818633479,0.773055003337967
"CCGGTAGAGATGTAAC-Sample_VP021",-12.2815187751474,2.38785083142262,2.48581391810148,-1.03237438018293,2.42996286461522,-1.15992773066111,-1.18867583110527,1.56820153628646,-0.326006316096215,1.12673281900685
"CCGGTAGGTCGCATAT-Sample_VP021",-10.5967786845415,4.72140734293415,0.972276347819221,0.176511880876214,0.848693138241215,1.27519674758839,2.5972173663755,0.768973293358508,-0.264893095167509,-1.47098166209666
"CCGTACTAGGACTGGT-Sample_VP021",-12.7561218369796,-7.96420808569274,3.07169184882575,-1.24519863999218,-0.950477411076387,-2.53136303188516,1.79264103218816,-0.0842860855233276,-1.174628496123,-0.0539789895688289
"CCGTACTCAACACGCC-Sample_VP021",-10.6255073485083,4.10911281909885,2.3092987198407,-0.387703692808365,0.58955024701953,-0.0328425716856562,0.170405903723354,1.16365660039023,-0.423331965797685,-0.0231081960011642
"CCGTACTCACCACGTG-Sample_VP021",-12.7450668594337,4.120914576355,4.69745919101385,-0.592542652556375,-2.96546604959508,-0.856713621997326,-1.69798266348904,-0.16645497977079,0.122368943847868,0.696569447966003
"CCGTGGAAGGCTCAGA-Sample_VP021",-12.1230117421349,-6.34588329138151,1.89332871329275,-0.0166703224537169,0.603722817915328,-2.59956170184344,2.83047623477899,-0.652921341777508,-0.0732069838373592,-0.111958851552422
"CCGTGGATCCGTTGTC-Sample_VP021",-11.882225957849,-7.83802459338811,2.22733546691568,-0.878571183242709,-0.337356615998321,-1.30078299129967,0.54332503755575,0.113145023925566,-1.4516817025566,-0.733950118909666
"CCGTTCAGTTCACGGC-Sample_VP021",-9.29511936475028,-0.785875487800091,-3.07774430767317,-1.52613675055614,-0.273053914478529,0.33463399727396,-0.194453388129275,0.0214353914120231,-0.863390941950409,0.485350447450163
"CCTAAAGGTTCTCATT-Sample_VP021",-9.90467870418775,4.15913061131162,0.741155306756946,-0.653580012819987,-1.48315092544397,2.89669309411513,0.804626951321878,0.282088334490734,-1.26018893704947,0.483114652350421
"CCTACACAGTGTACTC-Sample_VP021",-12.4057584150477,-7.49249070856342,2.58876543896232,-1.90731102881829,0.0951452722858915,0.640748130669646,-0.945787089058637,0.827881009948884,-0.188067495113088,0.551468732925215
"CCTACCACACGAAACG-Sample_VP021",-11.1637687422779,3.78083658520718,1.67729299005663,-0.10353700228168,0.130233095504253,-0.411778254981907,1.40788088643731,-0.218797270462294,-0.152809686143665,-0.177722833921505
"CCTACCATCAAACAAG-Sample_VP021",-11.9297192410924,-7.43171511068525,1.63858842580616,-0.506406774991469,0.41290465388668,0.254711328213825,-2.48280920627611,-0.822917699995092,0.184316244369661,-0.912379483148866
"CCTACCATCTCTGAGA-Sample_VP021",-10.7760592039327,-0.526163063478645,-1.58981649661821,-2.13189059224048,1.39653683443053,-3.98515709171059,-1.6176779577803,1.07238600573205,1.70811574654922,0.234080572587947
"CCTAGCTGTGACGCCT-Sample_VP021",-14.582114559893,6.33424257110438,4.6046525763353,-0.306788996214417,-0.772896947883284,1.17974677309901,0.396888206949408,-1.2512015011698,0.310292377827823,-1.09938386923252
"CCTAGCTTCAGGTAAA-Sample_VP021",-13.5112524021193,-9.01763644432849,2.69618333761642,-0.179691197855211,-0.0608332314320594,-3.34043469449267,4.0072012599439,-0.369739634119599,-0.612739979289936,-1.05656412561357
"CCTATTACATGAAGTA-Sample_VP021",-12.7239497690705,3.39105467620554,2.20101691234821,-0.566450972871312,1.98908587817074,1.56557579146211,0.150410095357489,0.106177182084719,0.759112510595482,0.599884069615791
"CCTCAGTCAACCGCCA-Sample_VP021",-14.0033055533089,6.31044951176599,4.82056227586919,0.0917553145895006,0.0944521122703336,0.924656167752013,-1.54414739928538,1.66397323323644,1.81276407701614,0.0386695265518148
"CCTCAGTGTTGCTCCT-Sample_VP021",-13.1629868652595,1.98995699645938,-1.13420916379228,-0.470796829236199,2.71811061921698,-0.31378011805881,-1.39418339540483,-1.29068649782159,-0.0344727340387231,-0.260824975468971
"CCTCTGAAGATAGCAT-Sample_VP021",-12.4054489303741,-8.27504267233554,2.25833453653752,-0.100349256025581,0.792938788422479,0.560375489886022,-1.71072652681215,0.180487676205056,-0.645890954229245,-0.29402786903652
"CCTCTGAGTTATGCGT-Sample_VP021",-11.2657391597963,2.27277202227739,0.70391204694156,-1.03282433853661,1.54565423483549,-3.00893159976289,-1.05261686334645,0.559523096404758,0.25895016865797,0.032654112719401
"CCTTCCCCAGGCTGAA-Sample_VP021",-12.2999646026126,4.15811472458894,0.932729500881391,-2.06798748969432,0.829007649099946,0.2682849040644,-0.396935371620523,0.497432429024631,-1.95444692817954,-0.0175379199930228
"CCTTCGAGTTCGGGCT-Sample_VP021",-9.83078930519027,2.10593936078324,1.02350428247822,-0.600178665799629,2.48477176832917,-1.82578814905604,-1.09839588358879,-0.350137855842295,1.76420022907368,-0.775124359599738
"CGAACATAGCGTGAGT-Sample_VP021",-12.8760569708661,-7.46367147170146,1.45146935220602,-0.740724170063458,0.946637193330706,-0.65047949405221,-0.864129335984336,-1.91082914312651,-0.557975575055996,-0.0549250610045851
"CGAACATAGTTACGGG-Sample_VP021",-12.2690144236104,-6.35017445085265,1.79556110820691,-0.958952093954309,-0.340574069652439,-0.470091442852221,-0.973740122345343,-0.0542013003441786,-1.46713998779026,-0.774480806262367
"CGAATGTCAAGCCTAT-Sample_VP021",-9.9547145763772,1.48685987924638,-2.45223534545477,-0.672787939967229,-0.300776884368357,0.0210328080985181,0.279330817182432,0.263628881713419,1.16640181924004,-0.153990447351019
"CGAATGTGTGCGAAAC-Sample_VP021",-12.6977656064295,3.29995387551673,1.61165661526118,-1.41445673693421,1.44618624614252,1.69373344494618,-0.225423853493655,-0.882221908714972,-0.625385992082243,-0.0689745548665845
"CGACCTTCACGAAAGC-Sample_VP021",-12.3435782325046,3.11557564592115,-0.170520652699947,-0.575997561886399,2.56259351465922,-0.213403210141997,0.59439477148825,-0.534289195799141,-0.28137526902033,0.671669916004384
"CGAGAAGTCTTAACCT-Sample_VP021",-11.9085431276372,3.78432926010504,3.69128929021412,-2.58552385900877,0.688491532676611,0.00740503802248872,-1.03588993499224,1.05202897824821,-0.260518872417955,0.233965758633872
"CGAGCACCAAGACGTG-Sample_VP021",-12.8143601767923,-6.76071780902085,1.70758145097896,-1.55996239663953,0.021905603504884,-3.03249756023457,1.64703341080303,-0.147858250472032,-1.56767318860304,-1.30046418655113
"CGAGCACTCGATGAGG-Sample_VP021",-11.9967361519068,-6.85855597296528,0.319965539841843,-1.26942629619177,-0.73620123440215,-0.541643071907794,-0.646154492146057,-0.532672863480428,-1.55144877978825,-0.214488387770514
"CGAGCCAAGGGTATCG-Sample_VP021",-10.5757050176154,0.471612308850494,-2.32306309490727,-1.94915270542807,-0.229420481111318,-0.642967008602755,0.724051624084102,-0.0173197441771322,-1.14830087137618,-0.371850586751745
"CGAGCCATCGCATGAT-Sample_VP021",-10.5663057706677,4.12089888896729,2.07838346490456,-1.13257543866312,-1.15284506559364,-1.03342913496746,0.146694670679048,-1.23541090426743,-0.944649741896165,0.299562119343254
"CGATCGGAGCTGCCCA-Sample_VP021",-11.2629164350535,-4.892162685715,0.780350809746237,-0.728111703478933,-0.965340426872636,-3.55942210465023,2.220327438072,-1.90948889753269,-1.22735286509636,0.683155180278922
"CGATGGCCACATCCGG-Sample_VP021",-10.9259742371532,4.43385641672223,0.392546825596621,0.080152666808608,0.894808855585121,0.245204825549654,0.545226035004529,-0.549674596275378,-0.221515252261226,0.342309954512541
"CGATGGCCAGGAATCG-Sample_VP021",-12.2902188073366,-6.70721280300209,1.89492071219336,-0.0623119236621071,-0.343648648550955,0.761218662129318,-0.999090655326082,-2.10155018779656,-1.05589320226067,-0.256127331145349
"CGATGGCGTGCGGTAA-Sample_VP021",-9.37516992798929,2.14027944370503,-1.31088094681803,-1.90652325932319,2.47799154123123,-4.33771743386703,-1.85563059231605,-0.0315408794916799,0.348277619879547,-0.25311214027123
"CGATGGCGTGTCAATC-Sample_VP021",-9.80166509285317,1.38133461728205,0.761392600941163,-2.23289738534356,2.30851650957711,-1.31086778211333,-0.657146064067498,0.866551294709849,-0.342564115345318,0.146132415058217
"CGATGTAGTGCACCAC-Sample_VP021",-11.7681291979807,3.5862668680848,1.02756911486307,-0.420646981991745,1.37699296750348,-1.996948930231,-0.973624736738322,0.354334621040983,-1.06418848766081,-0.491896117873457
"CGATTGACAAACTGCT-Sample_VP021",-11.0598927308473,3.37601806991619,0.754966900777253,-1.04897821093038,1.57354922121871,-2.32080198958313,-2.86136836775921,0.387289810961901,0.901825494945732,0.00793411186811393
"CGATTGACACATTAGC-Sample_VP021",-9.17797777641406,0.638994614196944,-2.88361163501059,0.147152138293407,0.770808894723295,-1.48914966356089,-0.507602075703286,0.79414496649322,-1.68377013967198,-0.53170010446834
"CGATTGACAGGTCCAC-Sample_VP021",-12.1274075214631,-6.0026412803542,0.697180988994964,-0.122606794694555,-0.290105695651717,1.62375082177467,-0.946370434063296,-1.93280011922589,-0.961255181882115,0.576225586466077
"CGATTGACATCGTCGG-Sample_VP021",-11.0143600378803,2.99904835690497,0.270481267422585,-1.11424573969816,0.95988487627197,0.26405852815115,-0.477684251199484,0.0648860300489312,0.729815812226137,0.340994147271243
"CGATTGAGTTGCTCCT-Sample_VP021",-10.677461551531,-5.74828431880653,0.636527686825937,-1.45035931794522,1.22841188357359,-2.9828705326167,0.619423233238119,0.921668486012056,1.58240193713628,-0.162470214099156
"CGATTGAGTTTGACTG-Sample_VP021",-13.7823680487508,-0.339081039427324,1.07712626297326,11.278118748923,-0.816569880529042,-0.59182769306088,0.299645894958196,-1.23687819299119,0.0484493827049532,-0.970725569033584
"CGCCAAGAGCTCTCGG-Sample_VP021",-13.5702472572624,-7.41062275214453,2.6983963343212,-0.664274467824202,0.239189065500718,-0.421231090660534,-1.28552122786085,-2.13674992396519,-2.00532407741642,-0.202952855660972
"CGCGGTAGTAAGGGCT-Sample_VP021",-13.4583710657582,4.72680659801079,4.22666731328125,-1.81426820784229,-0.0112826981600859,0.44278474426994,-0.69978011719902,-0.0376150992247627,-0.674921828697807,-1.04939836914227
"CGCGGTAGTCTCTCGT-Sample_VP021",-13.0957975934846,-8.31137851981944,1.21778671834175,-0.422216098876684,0.736565574246046,-2.47660281130663,3.00663116390537,-0.610563738645784,1.07946419889444,0.240135264301884
"CGCGGTATCCGCGGTA-Sample_VP021",-12.2011237605498,-6.23145636518639,2.34274262591297,-1.22538824100081,-0.907698237031219,-3.98123650447045,1.48459361781125,-0.224551586976072,0.360797129010864,0.0547195932476862
"CGCGTTTTCTAGAGTC-Sample_VP021",-6.773108218551,2.54132825455191,2.20321760580179,-0.734370260647245,0.0420388196455254,0.174495370686128,1.07533665179015,0.845802237874593,-2.19714124796448,-0.541825607475092
"CGCTATCAGTCAAGCG-Sample_VP021",-11.9034915329838,-6.67631733065823,-0.0757634234865366,-0.87261528752832,-0.638103378676082,-1.89141548149177,2.60752646127282,1.43505714323004,-0.135212711821172,0.642980683238842
"CGCTATCCAAAGCGGT-Sample_VP021",-10.7686146242454,-5.90461066309329,0.701725530525543,-0.796406313405551,-1.04923609654816,0.7071254336754,-1.49532422464269,-0.629699849222565,-1.54326812694122,-0.313181766847888
"CGCTATCGTTCGAATC-Sample_VP021",-13.290537912738,-7.91093679332972,2.99754363257578,-1.52918685644203,-0.720742665670977,0.93025817459511,-0.963394228134902,-0.532793848304899,-1.34742599557148,0.326200829186109
"CGCTGGAAGACTAGGC-Sample_VP021",-11.8375768295574,3.7942763912417,2.95895108914495,-1.51301326386447,1.82964323829919,-2.04178622650121,-1.21646228465255,0.0761418722763368,-0.174249800268239,-0.756098807076814
"CGCTGGAAGAGTGAGA-Sample_VP021",-14.1004799681637,3.59005759178665,2.51221593848057,-0.150389556520258,2.42708314012704,0.361212956533076,1.60245258171863,1.45623758542932,0.173081927460971,-0.28698617469472
"CGGACACGTTAGAACA-Sample_VP021",-10.2648494845156,-0.0489288707072672,-1.93954992222435,-0.607460543966679,-0.600892383058434,-1.31026083741945,-0.850286296454372,1.45100631564624,-0.863804875379004,0.160447422214633
"CGGACGTAGTGGTCCC-Sample_VP021",-10.4850014443566,3.99010595883528,-2.12620589086268,-1.51175366823685,2.05203030362986,-1.39113472468748,-0.618109811240622,-0.959307220006889,-0.337197126158356,0.703032878317591
"CGGACTGAGGTGATAT-Sample_VP021",-8.9761602783544,-0.278653671761809,-2.46380108426503,-0.288090647092392,-0.943086449010988,0.203379480144677,0.569461600551971,1.74818816120826,-0.604372296446475,0.792420266172937
"CGGACTGTCTGACCTC-Sample_VP021",-12.6959347678158,-7.23956806517655,2.62350541626411,-1.32632526227747,0.585457426944469,-2.78807697482961,2.84286282017144,1.73251841468316,0.868877393883088,-0.601592037876449
"CGGAGCTAGCCTTGAT-Sample_VP021",-13.3021348157549,-7.48408740721228,3.27948182593251,-1.64371513586526,-0.147181632265499,0.269569024159784,-0.67857170034721,0.225206348665077,-0.0306205791490937,0.348959865895968
"CGGAGCTAGTATCGAA-Sample_VP021",-8.20010739544176,0.850306966327631,-2.77115608752474,-1.09011590143454,-1.3040861972188,0.523392676966803,0.640709657921338,1.83985925930342,-0.70868208009813,0.514257976398862
"CGGAGCTAGTGAAGTT-Sample_VP021",-11.3238841989293,2.41502049460541,-0.728930480706232,-1.37388111980304,-0.460651996436022,-1.95919527192567,-1.33594523118111,-0.0156999483254787,1.78714293717971,0.997427142792171
"CGGAGCTCATCCTAGA-Sample_VP021",-10.4467563597246,-0.936660588295309,-0.00925269642202087,-0.374608353619298,0.682953579383258,0.840768767969305,-0.0240405781110019,-2.32013547479476,1.58005995035458,0.0158536456016364
"CGGAGCTTCGGTTCGG-Sample_VP021",-13.9514655284461,2.32004595096843,3.47180059595723,-0.784145645822497,2.34926082921069,1.22457345020296,0.876475363845153,-0.518812990915699,-1.34327180238707,-0.588751266619747
"CGGAGTCAGTGGGCTA-Sample_VP021",-11.3329186620933,-6.66387425319869,1.43480301195496,-0.388804079388937,-0.0875253882492283,-4.14429400408774,2.96132014802036,-0.426416955561553,1.67208345746056,0.0344305286982628
"CGGAGTCAGTGTCCCG-Sample_VP021",-12.3288519304523,-5.97735801894978,2.24642356125997,-0.024011278455027,1.38831830959182,1.01743181444825,-0.575275664791231,-1.13577085187147,0.223724161070569,-1.20234648733952
"CGGAGTCTCCCTCTTT-Sample_VP021",-12.688863789906,-7.39628962745615,1.28939356172873,0.0570560560805471,0.918390522940858,0.614355492203502,-0.313256668457875,-0.834038818605303,-1.3682237380032,0.31453604631935
"CGGCTAGCAAGAAAGG-Sample_VP021",-13.5286740260785,2.45644759583423,2.28092903077839,-1.39498322437766,-0.320641629426617,-0.175958649698713,-1.47305722127664,-0.925643908225263,0.385787425624818,0.216246719507107
"CGGCTAGCATCAGTAC-Sample_VP021",-11.8513637155398,2.91486660838289,-0.167600586139236,-0.736322928949122,1.415931741663,-0.0962833621554606,0.379672588671031,0.324765034413292,0.772260463447943,0.537683431685786
"CGGCTAGCATGCCTAA-Sample_VP021",-12.5008180198551,4.5625475685221,1.52931717273475,0.154075770701658,0.340754504638859,0.542741952898601,1.02524446706412,-0.632852698334009,-0.319424489702178,0.624176014929871
"CGGCTAGGTCTCCACT-Sample_VP021",-12.9096661289778,-6.53244327389043,1.92983838383477,-0.173478410634004,-0.180683758606895,0.64119994208677,-1.05679065085614,-2.06450134707333,-1.22881072096964,-0.539320849017479
"CGGCTAGGTGTCAATC-Sample_VP021",-10.8008139019253,2.31517845142035,0.0348414322874986,-1.7952872766287,0.731982328974291,-0.138089297302183,-1.37897202625782,1.40587601304754,-0.830855055501097,-0.372431502216024
"CGGGTCAAGTACGCGA-Sample_VP021",-11.8006586929364,-6.47489451490544,1.42218461701451,-0.288440977295645,-0.332800304688584,-1.97219973400262,0.691596247524948,-0.624758371961203,-1.12444188916366,0.338642669873293
"CGGGTCACACGAGAGT-Sample_VP021",-12.8238768619235,4.18960096326308,0.879646091408575,-0.617985282625236,1.68731504186921,-0.296964101017211,-1.07178719635966,0.439802200717785,-0.228532386818599,0.179051937438587
"CGGGTCACAGTAACGG-Sample_VP021",-12.5969191622034,-5.49348518161822,0.648460668711354,-0.408276242201899,-0.235100120570587,1.24898211136958,-0.92798988498932,-0.770054928722595,-1.4275895299935,-0.172881717856524
"CGGGTCAGTGGCCCTA-Sample_VP021",-13.3549370276717,4.6331942260829,3.79313191829594,-2.17456298556284,0.085298101818668,-2.39318404285031,-1.25775131442812,-0.121433066173579,0.562886509017758,-0.12685759228759
"CGGGTCATCTGAGTGT-Sample_VP021",-11.6199489052694,3.09216016336664,1.79233043288713,-1.31296682162106,0.102064933574568,0.171146487905223,-0.785317204441634,-0.632061095434499,-0.43203599867966,0.0365587431702235
"CGGTTAAAGGGATCTG-Sample_VP021",-10.8224926688724,4.42055244783083,2.95595211317872,-2.73632974563641,1.73444663347401,-1.62894676326639,-1.70876003931532,1.23293720330575,1.93086624050356,0.184754254415797
"CGTCACTCAGCTGTTA-Sample_VP021",-10.5893422783731,5.35099956375937,4.76659745541872,0.73445766403849,-4.06770249861681,1.00342547162832,0.562086367236664,1.62103110348426,0.614442784822132,-0.686054191905503
"CGTCAGGAGGTGTTAA-Sample_VP021",-11.756765321759,4.83358093182859,4.11428385400991,1.09047022077061,-2.45179125874901,-2.08796690869577,-1.05354119518495,0.262454881052956,-0.45598240807604,-0.487139822412814
"CGTCAGGCATGGTAGG-Sample_VP021",-12.8389375121192,5.02616892594934,1.77749281780852,-1.99306768849366,2.29246867742224,-2.19069211873734,-0.794458106789789,1.59900268196968,0.296133150798885,0.0849333887264562
"CGTCAGGGTATGAATG-Sample_VP021",-13.4522438819824,5.74293719205969,3.35825105826356,-1.1544700978207,0.212155842005254,-0.07323615061791,-0.35015105131319,0.86624433379947,1.2193017118472,0.547964090122409
"CGTCCATGTCAGAATA-Sample_VP021",-11.5998340967879,-7.16966659666863,1.01652562311888,-0.504397950472281,-0.328874093480654,0.147198085327421,-0.425882240629985,-0.863612705293052,-1.39199898506262,0.00927592619291406
"CGTCCATTCGGAATCT-Sample_VP021",-10.9991500340161,2.35756612335195,-0.0595196846979364,-0.280715129248344,2.39011967890669,-0.208030151292748,-1.99491072046412,-0.999718074311603,1.00139381182033,-0.170823094991753
"CGTCTACTCCCTAATT-Sample_VP021",-12.0977269275543,-6.94548705108623,2.16939175900751,-1.10044876169506,0.539462908845949,0.259635459699523,-0.865687142184769,-0.682742632839421,-0.840385324941624,-0.277440811553231
"CGTCTACTCTATCGCC-Sample_VP021",-11.50256657076,2.51625590729272,0.52126748433873,-1.15026579006235,0.566832865015223,0.723586580608733,-0.301667654974305,0.459497884056101,-1.11482269616698,0.756815503187819
"CGTGAGCGTACAGTGG-Sample_VP021",-12.986778950853,-5.87107901123225,1.23769222478535,-1.57264041299276,0.49739846422485,-2.84380997182446,4.91251676675359,-0.549105745093036,0.0658767080874192,0.994845826346133
"CGTGAGCTCAGCATGT-Sample_VP021",-12.0334346415654,-7.06791306001472,2.49338263523803,-1.45126548460596,-0.0554972557907423,-0.376813235072667,1.3147450205085,0.236035486768035,-0.188499085210621,-0.0611825112680921
"CGTGTCTAGGGAAACA-Sample_VP021",-12.2164400156647,-7.835193703848,1.78849285344438,-1.66047685077599,-0.968427146937212,-1.58712856511436,3.35499791057485,1.62252127426613,0.391810990207099,-0.244035771129301
"CGTTAGAGTCAAACTC-Sample_VP021",-12.0171269418625,1.95892962835986,-1.26228792758834,-0.385468262447072,1.38007670384892,-1.81943813642353,0.476951209435952,-1.66814561985016,-0.153677919496417,0.572771931246003
"CGTTGGGGTGCGATAG-Sample_VP021",-11.3134510138667,-6.03223500457847,1.70552433837444,-0.934780058921687,-0.294348468176671,1.26743969343757,-1.96881366147301,0.550349740890322,-0.708464264872463,0.17904313712726
"CGTTGGGTCTTTACAC-Sample_VP021",-14.0965188914869,3.85566026010054,3.83945718250294,0.519652739675891,1.38049059756412,1.91735358199397,0.440175828965165,0.307904952541277,0.403698633715265,-0.982688617230664
"CTAACTTAGTGGACGT-Sample_VP021",-12.9934409253393,-7.83215867319631,1.90365866886007,-1.3507036229366,0.883958451154108,0.506111128634747,-1.75642956634344,-0.519990520046526,-0.783963351390656,-0.186711232304557
"CTAACTTTCATATCGG-Sample_VP021",-11.1060361602909,-6.37832033136239,2.10146721157137,-0.661788132248576,1.24060432653688,-0.386514553790949,-2.2739355266794,-2.59712473900471,-0.747239078772998,-1.49138464686621
"CTAAGACAGCAGGCTA-Sample_VP021",-9.79101525036348,0.795990078819068,-3.07384705792536,-0.570389767096371,-2.86039370575581,-0.428641159201632,0.768532664045098,-1.36318136862418,-1.05149758543079,0.416739576219312
"CTAAGACAGTCAAGGC-Sample_VP021",-8.89751436203234,-0.152314669005047,-1.06939762591018,1.39895393339848,1.04240542082615,1.89928847168099,-0.394427540525619,-0.669457292342898,1.74414722239291,-2.02258810368628
"CTAAGACGTCCGAACC-Sample_VP021",-11.8927502935102,5.00094835802723,2.26604982290621,-1.05626154717094,1.46646596308387,-1.28003611951664,-1.01688647068339,2.36718925073757,-1.12258258618377,0.352024619033244
"CTAAGACTCATCGGAT-Sample_VP021",-12.6651894811784,-9.18711010857386,2.81883210293769,-1.42983271487141,-0.423629782262648,-3.38636862619508,3.26236671337854,0.563889688185204,-0.493592204049723,-0.287791382518946
"CTAAGACTCGGTGTCG-Sample_VP021",-11.9615714100052,-6.77746959828184,1.9993398481606,-0.16463883872546,1.20512538169668,-1.41030750556318,1.9576197177683,-0.836545094596146,-0.0832430676454754,0.322483145469637
"CTAATGGAGTGCCATT-Sample_VP021",-11.9458246380448,4.77719125295762,2.59622584994408,0.641064018706295,1.90679261266349,1.3760716879063,0.112483475669183,-0.479596212791059,-1.2375921027244,-0.156336581381381
"CTAATGGAGTTAAGTG-Sample_VP021",-9.63432331241862,0.616353087446453,-2.55131817217851,-0.719770469583133,-1.06271091720398,0.817201203368458,-0.0659441133007153,-0.204844663422813,-1.06478150576077,0.372684808640546
"CTAATGGCACTGTCGG-Sample_VP021",-12.9212699097198,-8.53781050282443,1.76292703545243,-1.14804814301134,-0.413400991720023,-0.753868814211545,-0.369397371804633,-1.88697369221821,-1.69155166480874,-0.497253645151652
"CTACACCAGCCGATTT-Sample_VP021",-10.8099719904672,3.20276799844535,0.474486124417719,-1.19826078025317,-0.20866542880312,-2.38369534142138,-1.60967608958776,-0.0128808348152886,0.303062486877242,-0.178319073354609
"CTACACCCAAAGAATC-Sample_VP021",-12.2600581917882,-6.9488384624339,1.87732057064129,-0.13583690173632,-0.920001769796266,-0.30884600956844,-2.24492149150678,-0.135950716721932,-1.58092687578156,-0.516808515552402
"CTACACCGTCCCGACA-Sample_VP021",-13.3477593049701,-6.90890776132258,1.45002271410584,-0.813753004657968,-0.125233315834022,-0.336572559042282,0.176183460431867,-1.48915487542483,-0.88177959220514,0.754901977098814
"CTACACCTCTCCAGGG-Sample_VP021",-8.59893965154322,-0.896736442276231,-3.00107409414746,-0.722288400217681,0.145924644238659,-0.574660445033659,-0.660212142109568,2.90776571358158,0.217874362835494,-0.333537839212522
"CTACATTCATTTGCTT-Sample_VP021",-11.2927179723962,5.79811115992664,3.04870482928794,0.396526051382074,-0.809764908980247,2.32142377952128,0.326882374250757,0.536951228905476,-0.396988415345603,0.0254873157909841
"CTACATTGTGGTCCGT-Sample_VP021",-10.5532008116915,4.38550721970147,4.47381675313901,-0.184217964354989,0.667911434285149,-0.910425108046036,-0.535020719112196,1.60007523662292,0.305438579772497,0.574560174095679
"CTACATTTCTATCCCG-Sample_VP021",-12.5542121051596,3.16678150359028,2.14183647949759,-0.56391786874395,2.41699230512145,-1.29406025711763,-0.52352192640749,-0.352520540295945,1.06171173219298,-0.161183171783101
"CTACCCACAAGCCTAT-Sample_VP021",-10.2814588777184,2.8855539213502,0.314402271043343,0.111854050372553,0.926678732332374,-0.561226864375765,0.115102118432676,0.24989795669342,-1.28406327457211,-0.531891503249346
"CTACGTCAGGCGTACA-Sample_VP021",-10.8392271924306,1.61184729166449,-1.73571441534133,-0.939127973301683,1.88981963217124,-1.55063925689308,-2.68173351260444,0.964313337401993,2.60719095011833,0.318226556815743
"CTACGTCCAGTAAGCG-Sample_VP021",-10.7145402000045,-5.70513741083479,1.29429483884953,-0.763257961727122,0.128387340431554,1.60795200189212,-1.38634962594713,-1.55109270721163,1.22593223103807,-0.851014036333044
"CTACGTCGTATGAATG-Sample_VP021",-11.6671885897994,-6.48239084870208,0.972263151369034,-0.0351246370979452,0.102285054152232,-3.00433503022144,3.8274001283179,-1.1354787570537,0.0710254265195256,0.207996570531147
"CTACGTCTCCCACTTG-Sample_VP021",-13.4271222294722,6.60315418438991,4.20095194622787,-0.640670873299095,2.24495006775968,-0.568774957248025,0.926915020394578,0.0283369907469748,0.0472254478614931,0.705141006848372
"CTACGTCTCGGTCTAA-Sample_VP021",-12.2455464930733,-7.17318326357242,2.82953342848132,-1.45470016452234,0.681224579792817,-0.962077564188512,-1.7508622159097,-0.648907460044976,-1.43153905742617,-1.17203072447276
"CTACGTCTCTCCTATA-Sample_VP021",-9.42469247208401,-0.808182846307924,-2.22326299446931,-1.61169672651753,0.646981059101567,-0.493964851052323,-0.183989303699158,3.17765172681041,-0.74727182089128,-0.128223383934034
"CTAGAGTGTTAAGGGC-Sample_VP021",-12.8244045068652,5.02832119994047,3.71018452381471,-0.812797744539942,0.0653856225496759,-1.51455539390044,-0.64242487812227,0.398941663056371,0.197789119287949,-0.017387753846259
"CTAGCCTCAAGCCCAC-Sample_VP021",-11.7048297324379,-5.6552102818036,1.75217271642126,-0.390265077854762,0.362605357979556,0.91211353049759,-1.27002725474691,-1.97824852994667,-1.92299738367225,-0.687145259943032
"CTAGCCTCATCGGGTC-Sample_VP021",-11.1050275379871,1.90427584869919,-2.63024625110419,-0.845745419814216,1.40883098057609,-3.22477342143781,-2.07274186872154,-0.778702397468899,1.03553404399,-0.239163387402628
"CTAGCCTTCTGAAAGA-Sample_VP021",-13.264324973824,-7.66444065739412,1.97588243487289,-1.12008643476901,0.345464666457845,0.597412918751686,-1.76758722261613,-0.877884245811249,-1.50574718779991,-0.801488379634205
"CTAGTGAGTGCACCAC-Sample_VP021",-12.8651901228106,3.86855111593968,1.80331559529282,-1.46675137114207,1.59072404173774,-2.65536162077933,-1.58245789123631,-0.503659519007812,1.45861785576377,-0.0180600060049445
"CTCACACTCAAGGCTT-Sample_VP021",-10.8372944707303,5.54764978836135,1.52611234032273,-0.721201308186751,2.1158023658699,1.74018741926481,1.65512410069879,1.03023702962618,-0.875252071350204,0.180372846425593
"CTCAGAACACCAACCG-Sample_VP021",-11.3423531189227,3.75062972442047,0.814710556164926,-1.9312709974164,1.03612422035191,-2.79229717965089,-1.91991340151073,0.874638942860887,0.0351240666616092,0.181078383345559
"CTCAGAATCACGCATA-Sample_VP021",-10.9373444830464,4.11281574029986,0.432909496652071,-1.35418169436379,-1.2822133314424,-2.89347226862886,-1.95086115616536,0.0856296075841583,0.298632601975931,0.264469908922116
"CTCATTAAGTTAACGA-Sample_VP021",-11.5719966997397,2.64135142841709,3.38645299792492,-2.40835945354883,0.570050297938135,-1.42731439185894,-1.53269033590006,1.98673231023305,1.01172377193615,-0.260377824879985
"CTCATTACAGCTCCGA-Sample_VP021",-11.6817232672066,3.94424602098556,1.41593616513474,-0.145129538094626,1.19660870964913,1.54968984486755,0.348952832137587,0.929324154923581,-0.0864755167170824,-0.269267611205685
"CTCATTATCTTATCTG-Sample_VP021",-6.52673403323504,4.49354324214955,3.46545328056112,-0.787140033547175,-1.46449834287123,-1.52297894141497,-1.13526940557445,-0.273535410551507,0.779037115946526,0.447767698885671
"CTCCTAGAGACGACGT-Sample_VP021",-13.4608258019377,4.63091101428544,4.51169803800765,-0.670382400960742,-0.628880538808661,0.763492765734617,-0.942151905940123,0.0628994507250243,1.06114497006767,0.242585588947582
"CTCCTAGAGGCATGGT-Sample_VP021",-12.7608869567621,3.61389739719434,2.27327231613025,0.324085607002631,1.16239879006974,1.93758818712774,0.964430906901631,-0.666497831878062,-1.18819900735913,0.0809321087713736
"CTCCTAGCATACGCTA-Sample_VP021",-14.2036515504622,4.70705125390077,2.13423846021751,-0.494893214114302,2.16294634971748,0.175192540175368,2.05204976432551,0.534707526615055,-0.305263727206748,-0.669461598284986
"CTCCTAGGTGTGCCTG-Sample_VP021",-14.4414377622667,5.28370241052061,3.6663494127159,0.500485727830565,-0.571733890895729,2.29798014204581,1.36001794100907,0.561291736626548,-0.454154274970947,0.219781923118729
"CTCCTAGTCCAGTATG-Sample_VP021",-13.0795028606655,-6.18217714018,1.59736406413138,0.521884512548745,0.444649974069607,1.85510238272124,-0.456751568213799,-1.85755656495692,1.32846990841341,-1.24015981529886
"CTCCTAGTCCTAGAAC-Sample_VP021",-11.8979807801208,-7.64304987353015,2.24141178492597,-1.344975374374,-1.30314817240784,-0.0461369431641247,-0.425155407259457,0.100697988217552,-1.03385613676276,-0.195916311740167
"CTCCTAGTCCTTTACA-Sample_VP021",-11.0000409522968,5.05686330897109,2.39636360615645,-0.0390683408663522,1.43496971370566,-1.43546346507873,-0.594589101811864,-0.622936229122085,-0.150998444873656,0.192005684423542
"CTCGAAACAGTGGGAT-Sample_VP021",-12.0568843280382,2.55910605014722,0.835998364126877,-1.42939448165747,1.70743396361528,-2.21939781782979,-0.290850826875312,-0.249825774958564,1.22874166343682,-0.443126397716149
"CTCGAGGGTAGCGTGA-Sample_VP021",-12.6519333636735,1.34371895075691,0.310845405410089,-0.709137746981783,2.46692660442881,-0.713317109887712,1.35522439439475,1.2185459867002,1.26205272421884,0.478544369492792
"CTCGAGGTCAACACAC-Sample_VP021",-11.1749147482054,-5.83341360828431,0.509026681217878,-0.373584380328317,-0.464511286177942,-2.16556230333419,0.25716790267688,0.794274474482171,-0.506327734886657,-0.751237074741038
"CTCGAGGTCCACTCCA-Sample_VP021",-12.096015319919,-6.53347682859185,1.67461929717429,-0.88894217136611,-0.993335378032051,0.427166469811995,-1.2375409792294,-1.97047313683177,-1.20249460105181,-0.951302440325524
"CTCGAGGTCGTGGGAA-Sample_VP021",-9.39104040182844,3.60253566550093,0.226870699515283,-1.22967405520981,1.18365460581211,1.73385137598916,-0.238318011792317,2.26860725170739,-1.85173504626075,0.014692645943269
"CTCGGAGAGTGCTGCC-Sample_VP021",-12.875580886215,2.56420358161865,-0.953623062146463,0.667262081465,2.73595933909874,-1.69412337720384,0.293897716900762,-1.03322563178637,1.82501563168502,0.160752424445774
"CTCGGAGTCAACGAAA-Sample_VP021",-12.3652125314906,-6.76607203563878,2.54153470475601,-0.970854302763759,-0.195187645217965,-0.328869689426737,-1.82331536793417,-0.723913377814766,-0.921429676382802,-0.637478726321265
"CTCGGGAGTAATAGCA-Sample_VP021",-12.0389200356585,-5.89288065690724,1.39570886611057,-0.5163007281726,-0.00959901422394949,0.768284030158168,-2.24816124154277,-0.705759882425747,-1.27665079768341,-0.665344330519102
"CTCGGGAGTGTTGAGG-Sample_VP021",-11.6808011427217,3.17520363850285,0.715623325192422,-0.556722636232661,-0.00905550842973025,0.339322092447761,-0.866483273703573,0.176308357297948,0.37109993997863,1.16846545776998
"CTCGGGATCTATCGCC-Sample_VP021",-11.9328600880834,3.94616031359832,1.85776486645296,0.135493472401946,1.3172271467183,1.89921923439538,0.800590743165223,-0.776547121385666,-0.510338058957741,0.238639931656126
"CTCGTACCAGCTGCTG-Sample_VP021",-11.572486201675,5.72881636929094,1.61480252328846,-0.312292372989174,-0.912218715597842,-0.609751264928212,0.0418014362873597,0.236602979366914,-1.96903745165889,-0.161442086875696
"CTCGTACGTAGCGTGA-Sample_VP021",-10.3673096360498,1.04164051949287,-1.35382686648339,-0.888161276664162,1.86503773835911,-2.39839212164679,-1.08257044898197,-0.836604783947708,0.0880795462899933,-1.11725059653184
"CTCGTACTCGATAGAA-Sample_VP021",-9.67647631395017,0.481889821873172,-1.98308475416886,-0.680802191645235,-1.73980684147118,-0.854184732502744,0.0399675715947393,0.337302462163772,-1.24290671732416,0.714579702070278
"CTCGTCACAGGGAGAG-Sample_VP021",-11.9133403912372,3.90569146476343,1.26692078975911,-1.96888675959444,1.83059886719757,-2.86130577915409,-1.62038530367849,0.649948658270872,-0.643171232702483,0.347113421831733
"CTCGTCACATGACGGA-Sample_VP021",-10.9904282298918,1.96455154202765,0.550559302425648,-0.83283959916543,3.42784493779846,0.0604578970513659,-1.47632669658637,-1.33402386795662,1.20363280037879,0.483306203771515
"CTCGTCATCACAACGT-Sample_VP021",-12.5703420658554,-7.18651476687892,1.76239297978163,-1.25554642239837,-0.737269606935699,0.0929600327391904,0.466036316110471,-1.5016638482681,-0.757157387055209,0.583159221066912
"CTCTAATAGCAGCGTA-Sample_VP021",-13.1333632578124,4.49139814761701,1.96602500851042,-2.73097614647448,1.42190609276443,-2.61767594899964,-1.68008613767474,0.428446066301374,-0.175761596311872,0.497909769210705
"CTCTAATGTCGGATCC-Sample_VP021",-11.1617301243226,3.44758742691937,1.24919577879204,-2.31692152163231,1.04097615065253,-1.21006077908155,-0.328748145511687,0.782505467420738,-1.18195743761577,0.143521083351153
"CTCTAATTCACATAGC-Sample_VP021",-10.9511017276205,-6.81000288350644,1.54342740295126,-1.19670075341859,0.531070436772199,-2.02822013523727,1.06510055378288,-1.34729235226176,-0.335180115750674,-0.280622146126788
"CTCTAATTCCGGGTGT-Sample_VP021",-12.2184386598825,4.56892142082804,3.78674123072313,0.237908045793421,-3.27295543053207,-1.67041230144113,-1.31638257041203,1.13656384036519,-0.60190672741966,0.940512076586302
"CTCTACGTCCAAACAC-Sample_VP021",-11.4172674701974,0.454336181560991,-1.76167893753121,-0.316769586193634,1.1100835168924,-0.117287414621151,-0.797614629774053,-1.38394610230185,0.173144860970179,-0.578437261675721
"CTCTACGTCGCACTCT-Sample_VP021",-12.5608862549978,5.62837636825892,5.49360933135184,-0.961062482582485,-2.48270740898462,-1.36137321813674,-0.761629367562964,0.707543285892956,0.87968435210786,-1.1304737529076
"CTCTGGTGTCGAGTTT-Sample_VP021",-11.5935873380287,-5.28270365416963,1.53667553675479,-0.824413346030839,0.0178103818044536,-1.81859062686047,2.26299442520236,0.0545948893359937,-0.594488020683363,-0.0834153991654035
